{"learner":{"attributes":{"best_iteration":"225","best_score":"0.6285731360919942","scikit_learn":"{\"_estimator_type\": \"classifier\"}"},"feature_names":["gender","SeniorCitizen","Partner","Dependents","tenure","PhoneService","PaperlessBilling","MonthlyCharges","TotalCharges","MultipleLines_No","MultipleLines_No phone service","MultipleLines_Yes","InternetService_DSL","InternetService_Fiber optic","InternetService_No","OnlineSecurity_No","OnlineSecurity_No internet service","OnlineSecurity_Yes","OnlineBackup_No","OnlineBackup_No internet service","OnlineBackup_Yes","DeviceProtection_No","DeviceProtection_No internet service","DeviceProtection_Yes","TechSupport_No","TechSupport_No internet service","TechSupport_Yes","StreamingTV_No","StreamingTV_No internet service","StreamingTV_Yes","StreamingMovies_No","StreamingMovies_No internet service","StreamingMovies_Yes","Contract_Month-to-month","Contract_One year","Contract_Two year","PaymentMethod_Bank transfer (automatic)","PaymentMethod_Credit card (automatic)","PaymentMethod_Electronic check","PaymentMethod_Mailed check","has_both_streaming","senior_married_with_dependents","discount_factor"],"feature_types":["int","int","int","int","int","int","int","float","float","int","int","int","int","int","int","int","int","int","int","int","int","int","int","int","int","int","int","int","int","int","int","int","int","int","int","int","int","int","int","int","int","int","float"],"gradient_booster":{"model":{"gbtree_model_param":{"num_parallel_tree":"1","num_trees":"726"},"iteration_indptr":[0,1,2,3,4,5,6,7,8,9,10,11,12,13,14,15,16,17,18,19,20,21,22,23,24,25,26,27,28,29,30,31,32,33,34,35,36,37,38,39,40,41,42,43,44,45,46,47,48,49,50,51,52,53,54,55,56,57,58,59,60,61,62,63,64,65,66,67,68,69,70,71,72,73,74,75,76,77,78,79,80,81,82,83,84,85,86,87,88,89,90,91,92,93,94,95,96,97,98,99,100,101,102,103,104,105,106,107,108,109,110,111,112,113,114,115,116,117,118,119,120,121,122,123,124,125,126,127,128,129,130,131,132,133,134,135,136,137,138,139,140,141,142,143,144,145,146,147,148,149,150,151,152,153,154,155,156,157,158,159,160,161,162,163,164,165,166,167,168,169,170,171,172,173,174,175,176,177,178,179,180,181,182,183,184,185,186,187,188,189,190,191,192,193,194,195,196,197,198,199,200,201,202,203,204,205,206,207,208,209,210,211,212,213,214,215,216,217,218,219,220,221,222,223,224,225,226,227,228,229,230,231,232,233,234,235,236,237,238,239,240,241,242,243,244,245,246,247,248,249,250,251,252,253,254,255,256,257,258,259,260,261,262,263,264,265,266,267,268,269,270,271,272,273,274,275,276,277,278,279,280,281,282,283,284,285,286,287,288,289,290,291,292,293,294,295,296,297,298,299,300,301,302,303,304,305,306,307,308,309,310,311,312,313,314,315,316,317,318,319,320,321,322,323,324,325,326,327,328,329,330,331,332,333,334,335,336,337,338,339,340,341,342,343,344,345,346,347,348,349,350,351,352,353,354,355,356,357,358,359,360,361,362,363,364,365,366,367,368,369,370,371,372,373,374,375,376,377,378,379,380,381,382,383,384,385,386,387,388,389,390,391,392,393,394,395,396,397,398,399,400,401,402,403,404,405,406,407,408,409,410,411,412,413,414,415,416,417,418,419,420,421,422,423,424,425,426,427,428,429,430,431,432,433,434,435,436,437,438,439,440,441,442,443,444,445,446,447,448,449,450,451,452,453,454,455,456,457,458,459,460,461,462,463,464,465,466,467,468,469,470,471,472,473,474,475,476,477,478,479,480,481,482,483,484,485,486,487,488,489,490,491,492,493,494,495,496,497,498,499,500,501,502,503,504,505,506,507,508,509,510,511,512,513,514,515,516,517,518,519,520,521,522,523,524,525,526,527,528,529,530,531,532,533,534,535,536,537,538,539,540,541,542,543,544,545,546,547,548,549,550,551,552,553,554,555,556,557,558,559,560,561,562,563,564,565,566,567,568,569,570,571,572,573,574,575,576,577,578,579,580,581,582,583,584,585,586,587,588,589,590,591,592,593,594,595,596,597,598,599,600,601,602,603,604,605,606,607,608,609,610,611,612,613,614,615,616,617,618,619,620,621,622,623,624,625,626,627,628,629,630,631,632,633,634,635,636,637,638,639,640,641,642,643,644,645,646,647,648,649,650,651,652,653,654,655,656,657,658,659,660,661,662,663,664,665,666,667,668,669,670,671,672,673,674,675,676,677,678,679,680,681,682,683,684,685,686,687,688,689,690,691,692,693,694,695,696,697,698,699,700,701,702,703,704,705,706,707,708,709,710,711,712,713,714,715,716,717,718,719,720,721,722,723,724,725,726],"tree_info":[0,0,0,0,0,0,0,0,0,0,0,0,0,0,0,0,0,0,0,0,0,0,0,0,0,0,0,0,0,0,0,0,0,0,0,0,0,0,0,0,0,0,0,0,0,0,0,0,0,0,0,0,0,0,0,0,0,0,0,0,0,0,0,0,0,0,0,0,0,0,0,0,0,0,0,0,0,0,0,0,0,0,0,0,0,0,0,0,0,0,0,0,0,0,0,0,0,0,0,0,0,0,0,0,0,0,0,0,0,0,0,0,0,0,0,0,0,0,0,0,0,0,0,0,0,0,0,0,0,0,0,0,0,0,0,0,0,0,0,0,0,0,0,0,0,0,0,0,0,0,0,0,0,0,0,0,0,0,0,0,0,0,0,0,0,0,0,0,0,0,0,0,0,0,0,0,0,0,0,0,0,0,0,0,0,0,0,0,0,0,0,0,0,0,0,0,0,0,0,0,0,0,0,0,0,0,0,0,0,0,0,0,0,0,0,0,0,0,0,0,0,0,0,0,0,0,0,0,0,0,0,0,0,0,0,0,0,0,0,0,0,0,0,0,0,0,0,0,0,0,0,0,0,0,0,0,0,0,0,0,0,0,0,0,0,0,0,0,0,0,0,0,0,0,0,0,0,0,0,0,0,0,0,0,0,0,0,0,0,0,0,0,0,0,0,0,0,0,0,0,0,0,0,0,0,0,0,0,0,0,0,0,0,0,0,0,0,0,0,0,0,0,0,0,0,0,0,0,0,0,0,0,0,0,0,0,0,0,0,0,0,0,0,0,0,0,0,0,0,0,0,0,0,0,0,0,0,0,0,0,0,0,0,0,0,0,0,0,0,0,0,0,0,0,0,0,0,0,0,0,0,0,0,0,0,0,0,0,0,0,0,0,0,0,0,0,0,0,0,0,0,0,0,0,0,0,0,0,0,0,0,0,0,0,0,0,0,0,0,0,0,0,0,0,0,0,0,0,0,0,0,0,0,0,0,0,0,0,0,0,0,0,0,0,0,0,0,0,0,0,0,0,0,0,0,0,0,0,0,0,0,0,0,0,0,0,0,0,0,0,0,0,0,0,0,0,0,0,0,0,0,0,0,0,0,0,0,0,0,0,0,0,0,0,0,0,0,0,0,0,0,0,0,0,0,0,0,0,0,0,0,0,0,0,0,0,0,0,0,0,0,0,0,0,0,0,0,0,0,0,0,0,0,0,0,0,0,0,0,0,0,0,0,0,0,0,0,0,0,0,0,0,0,0,0,0,0,0,0,0,0,0,0,0,0,0,0,0,0,0,0,0,0,0,0,0,0,0,0,0,0,0,0,0,0,0,0,0,0,0,0,0,0,0,0,0,0,0,0,0,0,0,0,0,0,0,0,0,0,0,0,0,0,0,0,0,0,0,0,0,0,0,0,0,0,0,0,0,0,0,0,0,0,0,0,0,0,0,0,0,0,0,0,0,0,0,0,0,0,0,0,0,0,0,0,0,0,0,0,0,0,0,0,0,0,0,0,0,0,0,0,0,0,0,0,0,0,0,0,0,0,0,0,0,0,0,0,0,0,0,0,0,0,0,0,0,0,0,0,0,0,0,0,0,0,0,0,0,0,0,0,0,0,0,0,0,0,0,0,0,0,0,0,0,0,0],"trees":[{"base_weights":[-0E0,-1.3494061E0,7.0495564E-1,-1.6083978E0,-6.876313E-1,9.5196664E-2,1.0851849E0,-1.8440982E0,-1.3374724E0,-1.1872565E0,-2.6464853E-1,6.627233E-1,-4.5040578E-1,1.4502774E0,6.3518935E-1,-2.2261387E-2,-1.5217712E-3,-1.8464983E-2,-9.814335E-3,-1.0693368E-2,-2.0560712E-2,-1.278375E-2,-1.252133E-3,1.2170231E-3,1.271358E-2,-8.677088E-3,4.801994E-4,9.894436E-3,1.7988654E-2,3.4666797E-3,1.0405294E-2],"categories":[],"categories_nodes":[],"categories_segments":[],"categories_sizes":[],"default_left":[0,0,0,0,0,0,0,0,0,0,0,0,0,0,0,0,0,0,0,0,0,0,0,0,0,0,0,0,0,0,0],"id":0,"left_children":[1,3,5,7,9,11,13,15,17,19,21,23,25,27,29,-1,-1,-1,-1,-1,-1,-1,-1,-1,-1,-1,-1,-1,-1,-1,-1],"loss_changes":[1.339628E3,8.148175E1,2.142363E2,1.9328796E1,2.8654251E1,1.1069996E2,9.2432434E1,5.515442E0,1.6194153E1,7.978874E0,9.5514145E0,3.921118E1,2.4760021E1,9.289368E0,2.0526436E1,0E0,0E0,0E0,0E0,0E0,0E0,0E0,0E0,0E0,0E0,0E0,0E0,0E0,0E0,0E0,0E0],"parents":[2147483647,0,0,1,1,2,2,3,3,4,4,5,5,6,6,7,7,8,8,9,9,10,10,11,11,12,12,13,13,14,14],"right_children":[2,4,6,8,10,12,14,16,18,20,22,24,26,28,30,-1,-1,-1,-1,-1,-1,-1,-1,-1,-1,-1,-1,-1,-1,-1,-1],"split_conditions":[1E0,9.36E1,1E0,1E0,1E0,6E0,1.6E1,1E0,1E0,7.2E1,1E0,1E0,1E0,1E0,1E0,-2.2261387E-2,-1.5217712E-3,-1.8464983E-2,-9.814335E-3,-1.0693368E-2,-2.0560712E-2,-1.278375E-2,-1.252133E-3,1.2170231E-3,1.271358E-2,-8.677088E-3,4.801994E-4,9.894436E-3,1.7988654E-2,3.4666797E-3,1.0405294E-2],"split_indices":[33,7,13,34,34,4,4,41,32,4,40,24,38,15,38,0,0,0,0,0,0,0,0,0,0,0,0,0,0,0,0],"split_type":[0,0,0,0,0,0,0,0,0,0,0,0,0,0,0,0,0,0,0,0,0,0,0,0,0,0,0,0,0,0,0],"sum_hessian":[1.40625E3,4.822419E2,9.2400806E2,3.4545746E2,1.3678445E2,3.554725E2,5.685355E2,1.8142934E2,1.6402814E2,6.177048E1,7.501397E1,1.7422311E2,1.812494E2,3.125244E2,2.5601114E2,1.7929695E2,2.1323726E0,1.1535823E2,4.866991E1,4.176205E1,2.0008432E1,1.13747425E1,6.3639225E1,7.3296684E1,1.0092642E2,1.1585019E2,6.5399216E1,2.6944195E1,2.8558023E2,1.0497594E2,1.5103519E2],"tree_param":{"num_deleted":"0","num_feature":"43","num_nodes":"31","size_leaf_vector":"1"}},{"base_weights":[-0E0,-1.3336048E0,6.966166E-1,-1.589494E0,-6.797897E-1,9.408036E-2,1.0723517E0,-1.8224242E0,-1.321759E0,-1.1736504E0,-2.6168907E-1,6.549067E-1,-4.450678E-1,1.4331508E0,6.276694E-1,-2.1999596E-2,-1.5093931E-3,-1.8247798E-2,-9.6996585E-3,-1.0568883E-2,-2.0328794E-2,-1.2643824E-2,-1.237405E-3,1.2026763E-3,1.2563667E-2,1.7389859E-3,-8.005544E-3,9.780675E-3,1.7775906E-2,3.4256603E-3,1.0282061E-2],"categories":[],"categories_nodes":[],"categories_segments":[],"categories_sizes":[],"default_left":[0,0,0,0,0,0,0,0,0,0,0,0,0,0,0,0,0,0,0,0,0,0,0,0,0,0,0,0,0,0,0],"id":1,"left_children":[1,3,5,7,9,11,13,15,17,19,21,23,25,27,29,-1,-1,-1,-1,-1,-1,-1,-1,-1,-1,-1,-1,-1,-1,-1,-1],"loss_changes":[1.3082471E3,7.9527405E1,2.091872E2,1.8870789E1,2.7994083E1,1.08097305E2,9.025995E1,5.377136E0,1.5808319E1,7.8044662E0,9.344329E0,3.828962E1,2.4363537E1,9.0578E0,2.0041107E1,0E0,0E0,0E0,0E0,0E0,0E0,0E0,0E0,0E0,0E0,0E0,0E0,0E0,0E0,0E0,0E0],"parents":[2147483647,0,0,1,1,2,2,3,3,4,4,5,5,6,6,7,7,8,8,9,9,10,10,11,11,12,12,13,13,14,14],"right_children":[2,4,6,8,10,12,14,16,18,20,22,24,26,28,30,-1,-1,-1,-1,-1,-1,-1,-1,-1,-1,-1,-1,-1,-1,-1,-1],"split_conditions":[1E0,9.36E1,1E0,1E0,1E0,6E0,1.6E1,1E0,1E0,7.2E1,1E0,1E0,1E0,1E0,1E0,-2.1999596E-2,-1.5093931E-3,-1.8247798E-2,-9.6996585E-3,-1.0568883E-2,-2.0328794E-2,-1.2643824E-2,-1.237405E-3,1.2026763E-3,1.2563667E-2,1.7389859E-3,-8.005544E-3,9.780675E-3,1.7775906E-2,3.4256603E-3,1.0282061E-2],"split_indices":[33,7,13,34,34,4,4,41,32,4,40,24,5,15,38,0,0,0,0,0,0,0,0,0,0,0,0,0,0,0,0],"split_type":[0,0,0,0,0,0,0,0,0,0,0,0,0,0,0,0,0,0,0,0,0,0,0,0,0,0,0,0,0,0,0],"sum_hessian":[1.4061786E3,4.8220493E2,9.2397363E2,3.4542426E2,1.3678065E2,3.5546622E2,5.685074E2,1.8140712E2,1.6401715E2,6.176717E1,7.501348E1,1.74219E2,1.8124722E2,3.1250067E2,2.5600674E2,1.7927475E2,2.1323714E0,1.15348404E2,4.866874E1,4.1760853E1,2.0006315E1,1.1374278E1,6.3639202E1,7.329665E1,1.0092235E2,4.9961376E1,1.3128584E2,2.6943535E1,2.8555713E2,1.04975624E2,1.510311E2],"tree_param":{"num_deleted":"0","num_feature":"43","num_nodes":"31","size_leaf_vector":"1"}},{"base_weights":[-0E0,-1.3181875E0,6.8842787E-1,-1.5711086E0,-6.720744E-1,9.2985414E-2,1.0597736E0,-1.8014357E0,-1.3064017E0,-1.1603208E0,-2.5876608E-1,6.4721245E-1,-4.3978968E-1,1.4164374E0,6.202595E-1,-2.1746144E-2,-1.4971179E-3,-1.8036166E-2,-9.586767E-3,-1.044642E-2,-2.0103466E-2,-1.2506356E-2,-1.2228488E-3,1.1885021E-3,1.2416499E-2,-8.505572E-3,5.2625366E-4,9.668672E-3,1.7568456E-2,3.3851457E-3,1.0160827E-2],"categories":[],"categories_nodes":[],"categories_segments":[],"categories_sizes":[],"default_left":[0,0,0,0,0,0,0,0,0,0,0,0,0,0,0,0,0,0,0,0,0,0,0,0,0,0,0,0,0,0,0],"id":2,"left_children":[1,3,5,7,9,11,13,15,17,19,21,23,25,27,29,-1,-1,-1,-1,-1,-1,-1,-1,-1,-1,-1,-1,-1,-1,-1,-1],"loss_changes":[1.2777637E3,7.765784E1,2.042858E2,1.8440918E1,2.735458E1,1.0555775E2,8.81734E1,5.245117E0,1.5440247E1,7.638649E0,9.1426735E0,3.7395004E1,2.4089817E1,8.837097E0,1.9569748E1,0E0,0E0,0E0,0E0,0E0,0E0,0E0,0E0,0E0,0E0,0E0,0E0,0E0,0E0,0E0,0E0],"parents":[2147483647,0,0,1,1,2,2,3,3,4,4,5,5,6,6,7,7,8,8,9,9,10,10,11,11,12,12,13,13,14,14],"right_children":[2,4,6,8,10,12,14,16,18,20,22,24,26,28,30,-1,-1,-1,-1,-1,-1,-1,-1,-1,-1,-1,-1,-1,-1,-1,-1],"split_conditions":[1E0,9.36E1,1E0,1E0,1E0,6E0,1.6E1,1E0,1E0,7.2E1,1E0,1E0,1E0,1E0,1E0,-2.1746144E-2,-1.4971179E-3,-1.8036166E-2,-9.586767E-3,-1.044642E-2,-2.0103466E-2,-1.2506356E-2,-1.2228488E-3,1.1885021E-3,1.2416499E-2,-8.505572E-3,5.2625366E-4,9.668672E-3,1.7568456E-2,3.3851457E-3,1.0160827E-2],"split_indices":[33,7,13,34,34,4,4,41,32,4,40,24,38,15,38,0,0,0,0,0,0,0,0,0,0,0,0,0,0,0,0],"split_type":[0,0,0,0,0,0,0,0,0,0,0,0,0,0,0,0,0,0,0,0,0,0,0,0,0,0,0,0,0,0,0],"sum_hessian":[1.4059689E3,4.820956E2,9.238733E2,3.453262E2,1.3676944E2,3.5544907E2,5.6842426E2,1.8134154E2,1.6398465E2,6.17574E1,7.501203E1,1.7420688E2,1.812422E2,3.1243048E2,2.5599373E2,1.7920917E2,2.1323678E0,1.1531937E2,4.8665283E1,4.175733E1,2.000007E1,1.1372904E1,6.3639126E1,7.329657E1,1.009103E2,1.15843605E2,6.5398605E1,2.6941586E1,2.8548892E2,1.0497469E2,1.5101904E2],"tree_param":{"num_deleted":"0","num_feature":"43","num_nodes":"31","size_leaf_vector":"1"}},{"base_weights":[-3.494515E-5,-1.3031383E0,6.8038195E-1,-1.5532185E0,-6.644821E-1,9.1901414E-2,1.0474416E0,-1.7811005E0,-1.2913862E0,-1.1472578E0,-2.5587934E-1,6.396372E-1,-4.3459392E-1,1.4001205E0,6.129572E-1,-2.1500636E-2,-1.4849438E-3,-1.7829843E-2,-9.475615E-3,-1.0977289E-2,-2.1620758E-2,-1.2371271E-2,-1.2084666E-3,1.174495E-3,1.2271986E-2,1.7669486E-3,-7.844109E-3,9.558379E-3,1.7366085E-2,3.3451284E-3,1.0041535E-2],"categories":[],"categories_nodes":[],"categories_segments":[],"categories_sizes":[],"default_left":[0,0,0,0,0,0,0,0,0,0,0,0,0,0,0,0,0,0,0,0,0,0,0,0,0,0,0,0,0,0,0],"id":3,"left_children":[1,3,5,7,9,11,13,15,17,19,21,23,25,27,29,-1,-1,-1,-1,-1,-1,-1,-1,-1,-1,-1,-1,-1,-1,-1,-1],"loss_changes":[1.2481399E3,7.586798E1,1.995299E2,1.8037292E1,2.6734814E1,1.0308368E2,8.616785E1,5.1190186E0,1.5088745E1,7.5515823E0,8.946259E0,3.6526245E1,2.3703804E1,8.627014E0,1.9111885E1,0E0,0E0,0E0,0E0,0E0,0E0,0E0,0E0,0E0,0E0,0E0,0E0,0E0,0E0,0E0,0E0],"parents":[2147483647,0,0,1,1,2,2,3,3,4,4,5,5,6,6,7,7,8,8,9,9,10,10,11,11,12,12,13,13,14,14],"right_children":[2,4,6,8,10,12,14,16,18,20,22,24,26,28,30,-1,-1,-1,-1,-1,-1,-1,-1,-1,-1,-1,-1,-1,-1,-1,-1],"split_conditions":[1E0,9.36E1,1E0,1E0,1E0,6E0,1.6E1,1E0,1E0,7.86225E3,1E0,1E0,1E0,1E0,1E0,-2.1500636E-2,-1.4849438E-3,-1.7829843E-2,-9.475615E-3,-1.0977289E-2,-2.1620758E-2,-1.2371271E-2,-1.2084666E-3,1.174495E-3,1.2271986E-2,1.7669486E-3,-7.844109E-3,9.558379E-3,1.7366085E-2,3.3451284E-3,1.0041535E-2],"split_indices":[33,7,13,34,34,4,4,41,32,8,40,24,5,15,38,0,0,0,0,0,0,0,0,0,0,0,0,0,0,0,0],"split_type":[0,0,0,0,0,0,0,0,0,0,0,0,0,0,0,0,0,0,0,0,0,0,0,0,0,0,0,0,0,0,0],"sum_hessian":[1.4056248E3,4.8191663E2,9.237081E2,3.451656E2,1.3675105E2,3.5542007E2,5.682881E2,1.8123416E2,1.6393143E2,6.174139E1,7.500966E1,1.7418703E2,1.8123303E2,3.1231564E2,2.5597243E2,1.7910179E2,2.1323617E0,1.1527182E2,4.865961E1,4.7792053E1,1.3949338E1,1.137065E1,6.3639008E1,7.329644E1,1.0089059E2,4.996028E1,1.3127275E2,2.6938395E1,2.8537723E2,1.0497317E2,1.5099927E2],"tree_param":{"num_deleted":"0","num_feature":"43","num_nodes":"31","size_leaf_vector":"1"}},{"base_weights":[-7.080001E-5,-1.2884445E0,6.724768E-1,-1.5358019E0,-6.570223E-1,9.083766E-2,1.0353464E0,-1.7613877E0,-1.2766994E0,-1.1344733E0,-2.53028E-1,6.321777E-1,-4.29456E-1,1.3841828E0,6.0575956E-1,-2.1262698E-2,-1.4728679E-3,-1.7628606E-2,-9.366158E-3,-1.0191448E-2,-1.970372E-2,-1.2238487E-2,-1.1942546E-3,1.160654E-3,1.2130041E-2,-8.338553E-3,5.7045836E-4,9.449752E-3,1.7168568E-2,3.3056E-3,9.924128E-3],"categories":[],"categories_nodes":[],"categories_segments":[],"categories_sizes":[],"default_left":[0,0,0,0,0,0,0,0,0,0,0,0,0,0,0,0,0,0,0,0,0,0,0,0,0,0,0,0,0,0,0],"id":4,"left_children":[1,3,5,7,9,11,13,15,17,19,21,23,25,27,29,-1,-1,-1,-1,-1,-1,-1,-1,-1,-1,-1,-1,-1,-1,-1,-1],"loss_changes":[1.2193516E3,7.415143E1,1.9491003E2,1.765802E1,2.6135422E1,1.00669174E2,8.423895E1,4.998474E0,1.4752899E1,7.421219E0,8.754887E0,3.5682327E1,2.3441387E1,8.426392E0,1.8666954E1,0E0,0E0,0E0,0E0,0E0,0E0,0E0,0E0,0E0,0E0,0E0,0E0,0E0,0E0,0E0,0E0],"parents":[2147483647,0,0,1,1,2,2,3,3,4,4,5,5,6,6,7,7,8,8,9,9,10,10,11,11,12,12,13,13,14,14],"right_children":[2,4,6,8,10,12,14,16,18,20,22,24,26,28,30,-1,-1,-1,-1,-1,-1,-1,-1,-1,-1,-1,-1,-1,-1,-1,-1],"split_conditions":[1E0,9.36E1,1E0,1E0,1E0,6E0,1.6E1,1E0,1E0,7.2E1,1E0,1E0,1E0,1E0,1E0,-2.1262698E-2,-1.4728679E-3,-1.7628606E-2,-9.366158E-3,-1.0191448E-2,-1.970372E-2,-1.2238487E-2,-1.1942546E-3,1.160654E-3,1.2130041E-2,-8.338553E-3,5.7045836E-4,9.449752E-3,1.7168568E-2,3.3056E-3,9.924128E-3],"split_indices":[33,7,13,34,34,4,4,41,32,4,40,24,38,15,38,0,0,0,0,0,0,0,0,0,0,0,0,0,0,0,0],"split_type":[0,0,0,0,0,0,0,0,0,0,0,0,0,0,0,0,0,0,0,0,0,0,0,0,0,0,0,0,0,0,0],"sum_hessian":[1.4051532E3,4.8167145E2,9.2348175E2,3.4494476E2,1.3672668E2,3.5538095E2,5.681008E2,1.810865E2,1.6385825E2,6.1720295E1,7.5006386E1,1.7415971E2,1.8122122E2,3.1215768E2,2.5594315E2,1.7895416E2,2.1323533E0,1.1520644E2,4.8651806E1,4.1742294E1,1.9978003E1,1.1367548E1,6.363884E1,7.3296265E1,1.0086346E2,1.15824394E2,6.539683E1,2.6934004E1,2.8522366E2,1.0497107E2,1.5097208E2],"tree_param":{"num_deleted":"0","num_feature":"43","num_nodes":"31","size_leaf_vector":"1"}},{"base_weights":[-1.0540272E-4,-1.2740861E0,6.647059E-1,-1.518838E0,-6.496646E-1,8.978439E-2,1.0234807E0,-1.646284E0,-1.0759206E0,-1.1219108E0,-2.5021157E-1,6.2483126E-1,-4.2439735E-1,1.36861E0,5.986649E-1,-2.023767E-2,-1.42464815E-2,-1.9113934E-2,-9.715997E-3,-1.0714922E-2,-2.121187E-2,-1.210794E-2,-1.1802092E-3,1.1469757E-3,1.1990586E-2,1.7933444E-3,-7.686852E-3,9.342753E-3,1.6975718E-2,3.2665606E-3,9.808558E-3],"categories":[],"categories_nodes":[],"categories_segments":[],"categories_sizes":[],"default_left":[0,0,0,0,0,0,0,0,0,0,0,0,0,0,0,0,0,0,0,0,0,0,0,0,0,0,0,0,0,0,0],"id":5,"left_children":[1,3,5,7,9,11,13,15,17,19,21,23,25,27,29,-1,-1,-1,-1,-1,-1,-1,-1,-1,-1,-1,-1,-1,-1,-1,-1],"loss_changes":[1.1913547E3,7.250775E1,1.9042444E2,1.7459839E1,2.5552402E1,9.831649E1,8.2382324E1,3.421997E0,9.5023575E0,7.354492E0,8.568413E0,3.486232E1,2.306485E1,8.234863E0,1.8234436E1,0E0,0E0,0E0,0E0,0E0,0E0,0E0,0E0,0E0,0E0,0E0,0E0,0E0,0E0,0E0,0E0],"parents":[2147483647,0,0,1,1,2,2,3,3,4,4,5,5,6,6,7,7,8,8,9,9,10,10,11,11,12,12,13,13,14,14],"right_children":[2,4,6,8,10,12,14,16,18,20,22,24,26,28,30,-1,-1,-1,-1,-1,-1,-1,-1,-1,-1,-1,-1,-1,-1,-1,-1],"split_conditions":[1E0,9.36E1,1E0,1E0,1E0,6E0,1.6E1,1E0,1E0,7.86225E3,1E0,1E0,1E0,1E0,1E0,-2.023767E-2,-1.42464815E-2,-1.9113934E-2,-9.715997E-3,-1.0714922E-2,-2.121187E-2,-1.210794E-2,-1.1802092E-3,1.1469757E-3,1.1990586E-2,1.7933444E-3,-7.686852E-3,9.342753E-3,1.6975718E-2,3.2665606E-3,9.808558E-3],"split_indices":[33,7,13,15,34,4,4,38,34,8,40,24,5,15,38,0,0,0,0,0,0,0,0,0,0,0,0,0,0,0,0],"split_type":[0,0,0,0,0,0,0,0,0,0,0,0,0,0,0,0,0,0,0,0,0,0,0,0,0,0,0,0,0,0,0],"sum_hessian":[1.4045559E3,4.8136084E2,9.2319507E2,3.4466586E2,1.3669498E2,3.5533072E2,5.678643E2,2.6536044E2,7.930542E1,6.1692734E1,7.500225E1,1.7412523E2,1.8120547E2,3.1195816E2,2.5590616E2,2.3756117E2,2.7799267E1,2.466244E1,5.4642982E1,4.776421E1,1.3928521E1,1.13636265E1,6.3638626E1,7.3296036E1,1.008292E2,4.9958588E1,1.3124689E2,2.6928453E1,2.8502972E2,1.04968414E2,1.5093774E2],"tree_param":{"num_deleted":"0","num_feature":"43","num_nodes":"31","size_leaf_vector":"1"}},{"base_weights":[-1.4985737E-4,-1.2600589E0,6.570675E-1,-1.5023059E0,-6.424328E-1,8.8750646E-2,1.0118362E0,-1.7246243E0,-1.2472274E0,-1.1096087E0,-2.4742964E-1,6.1759496E-1,-4.1939428E-1,1.3533874E0,5.916705E-1,-2.0821717E-2,-1.297181E-3,-1.7246649E-2,-9.095935E-3,-9.944824E-3,-1.9324198E-2,-1.197957E-2,-1.1663316E-3,1.1334594E-3,1.185354E-2,-8.175843E-3,6.128739E-4,1.975684E-2,1.4825857E-2,3.227995E-3,9.694779E-3],"categories":[],"categories_nodes":[],"categories_segments":[],"categories_sizes":[],"default_left":[0,0,0,0,0,0,0,0,0,0,0,0,0,0,0,0,0,0,0,0,0,0,0,0,0,0,0,0,0,0,0],"id":6,"left_children":[1,3,5,7,9,11,13,15,17,19,21,23,25,27,29,-1,-1,-1,-1,-1,-1,-1,-1,-1,-1,-1,-1,-1,-1,-1,-1],"loss_changes":[1.164154E3,7.092908E1,1.8606439E2,1.7125977E1,2.498814E1,9.6020065E1,8.05943E1,4.9072876E0,1.4371918E1,7.2223663E0,8.386661E0,3.4065315E1,2.2813663E1,8.214233E0,1.7813965E1,0E0,0E0,0E0,0E0,0E0,0E0,0E0,0E0,0E0,0E0,0E0,0E0,0E0,0E0,0E0,0E0],"parents":[2147483647,0,0,1,1,2,2,3,3,4,4,5,5,6,6,7,7,8,8,9,9,10,10,11,11,12,12,13,13,14,14],"right_children":[2,4,6,8,10,12,14,16,18,20,22,24,26,28,30,-1,-1,-1,-1,-1,-1,-1,-1,-1,-1,-1,-1,-1,-1,-1,-1],"split_conditions":[1E0,9.36E1,1E0,1E0,1E0,6E0,1.6E1,1E0,1E0,7.2E1,1E0,1E0,1E0,2E0,1E0,-2.0821717E-2,-1.297181E-3,-1.7246649E-2,-9.095935E-3,-9.944824E-3,-1.9324198E-2,-1.197957E-2,-1.1663316E-3,1.1334594E-3,1.185354E-2,-8.175843E-3,6.128739E-4,1.975684E-2,1.4825857E-2,3.227995E-3,9.694779E-3],"split_indices":[33,7,13,34,34,4,4,41,32,4,40,24,38,4,38,0,0,0,0,0,0,0,0,0,0,0,0,0,0,0,0],"split_type":[0,0,0,0,0,0,0,0,0,0,0,0,0,0,0,0,0,0,0,0,0,0,0,0,0,0,0,0,0,0,0],"sum_hessian":[1.4038501E3,4.8099857E2,9.2285156E2,3.4434076E2,1.366578E2,3.5527115E2,5.6758044E2,1.8069054E2,1.636502E2,6.1660522E1,7.499729E1,1.7408382E2,1.8118733E2,3.1171866E2,2.5586176E2,1.7855858E2,2.1319654E0,1.1502751E2,4.8622704E1,4.1717594E1,1.9942928E1,1.135891E1,6.363838E1,7.329576E1,1.00788055E2,1.1579336E2,6.5393974E1,8.104131E1,2.3067734E2,1.0496524E2,1.5089651E2],"tree_param":{"num_deleted":"0","num_feature":"43","num_nodes":"31","size_leaf_vector":"1"}},{"base_weights":[-1.7697587E-4,-1.2463326E0,6.495612E-1,-1.4861828E0,-6.3529754E-1,8.7726735E-2,1.000413E0,-1.61198E0,-1.0494307E0,-1.0975133E0,-2.4468125E-1,6.104662E-1,-4.1446823E-1,1.3385092E0,5.8477443E-1,-1.9820886E-2,-1.3910079E-2,-2.630787E-3,-1.4305113E-2,-1.0461235E-2,-2.0825258E-2,-6.566582E-4,-9.969454E-3,1.1201029E-3,1.1718834E-2,1.8182292E-3,-7.533609E-3,9.064664E-3,1.6609928E-2,3.1899007E-3,9.582743E-3],"categories":[],"categories_nodes":[],"categories_segments":[],"categories_sizes":[],"default_left":[0,0,0,0,0,0,0,0,0,0,0,0,0,0,0,0,0,0,0,0,0,0,0,0,0,0,0,0,0,0,0],"id":7,"left_children":[1,3,5,7,9,11,13,15,17,19,21,23,25,27,29,-1,-1,-1,-1,-1,-1,-1,-1,-1,-1,-1,-1,-1,-1,-1,-1],"loss_changes":[1.1376741E3,6.941376E1,1.8183218E2,1.6986145E1,2.4438889E1,9.3782166E1,7.887317E1,3.357666E0,9.418602E0,7.1755066E0,8.364135E0,3.329045E1,2.244576E1,8.076843E0,1.7405045E1,0E0,0E0,0E0,0E0,0E0,0E0,0E0,0E0,0E0,0E0,0E0,0E0,0E0,0E0,0E0,0E0],"parents":[2147483647,0,0,1,1,2,2,3,3,4,4,5,5,6,6,7,7,8,8,9,9,10,10,11,11,12,12,13,13,14,14],"right_children":[2,4,6,8,10,12,14,16,18,20,22,24,26,28,30,-1,-1,-1,-1,-1,-1,-1,-1,-1,-1,-1,-1,-1,-1,-1,-1],"split_conditions":[1E0,9.36E1,1E0,1E0,1E0,6E0,1.6E1,1E0,1.20605E3,7.86225E3,1E0,1E0,1E0,1E0,1E0,-1.9820886E-2,-1.3910079E-2,-2.630787E-3,-1.4305113E-2,-1.0461235E-2,-2.0825258E-2,-6.566582E-4,-9.969454E-3,1.1201029E-3,1.1718834E-2,1.8182292E-3,-7.533609E-3,9.064664E-3,1.6609928E-2,3.1899007E-3,9.582743E-3],"split_indices":[33,7,13,15,34,4,4,38,8,8,3,24,5,15,38,0,0,0,0,0,0,0,0,0,0,0,0,0,0,0,0],"split_type":[0,0,0,0,0,0,0,0,0,0,0,0,0,0,0,0,0,0,0,0,0,0,0,0,0,0,0,0,0,0,0],"sum_hessian":[1.4030238E3,4.8056744E2,9.2245636E2,3.4395374E2,1.3661372E2,3.5520117E2,5.672552E2,2.6476614E2,7.918757E1,6.1622204E1,7.4991516E1,1.7403574E2,1.8116542E2,3.1144504E2,2.5581018E2,2.3701318E2,2.775297E1,1.2461638E1,6.672593E1,4.7724594E1,1.389761E1,5.7696842E1,1.7294672E1,7.329544E1,1.007403E2,4.9956337E1,1.3120908E2,2.6908247E1,2.8453677E2,1.0496154E2,1.5084863E2],"tree_param":{"num_deleted":"0","num_feature":"43","num_nodes":"31","size_leaf_vector":"1"}},{"base_weights":[-2.102448E-4,-1.2328675E0,6.421733E-1,-1.4704111E0,-6.2824816E-1,8.672173E-2,9.891878E-1,-1.6904805E0,-1.218261E0,-1.085662E0,-2.419232E-1,6.03442E-1,-4.0959528E-1,1.323943E0,5.779744E-1,-2.0412369E-2,-1.1293344E-3,-1.6875831E-2,-8.820991E-3,-1.0343477E-2,-2.0621926E-2,-1.1816071E-2,-1.1212102E-3,1.1069047E-3,1.1586389E-2,-8.0172755E-3,6.5355527E-4,1.9373208E-2,1.4487187E-2,3.1522722E-3,9.472403E-3],"categories":[],"categories_nodes":[],"categories_segments":[],"categories_sizes":[],"default_left":[0,0,0,0,0,0,0,0,0,0,0,0,0,0,0,0,0,0,0,0,0,0,0,0,0,0,0,0,0,0,0],"id":8,"left_children":[1,3,5,7,9,11,13,15,17,19,21,23,25,27,29,-1,-1,-1,-1,-1,-1,-1,-1,-1,-1,-1,-1,-1,-1,-1,-1],"loss_changes":[1.1118821E3,6.7956055E1,1.7771204E2,1.675824E1,2.3910007E1,9.159733E1,7.7210754E1,4.8257446E0,1.4050674E1,7.0523605E0,8.201256E0,3.253688E1,2.220571E1,8.090698E0,1.7007233E1,0E0,0E0,0E0,0E0,0E0,0E0,0E0,0E0,0E0,0E0,0E0,0E0,0E0,0E0,0E0,0E0],"parents":[2147483647,0,0,1,1,2,2,3,3,4,4,5,5,6,6,7,7,8,8,9,9,10,10,11,11,12,12,13,13,14,14],"right_children":[2,4,6,8,10,12,14,16,18,20,22,24,26,28,30,-1,-1,-1,-1,-1,-1,-1,-1,-1,-1,-1,-1,-1,-1,-1,-1],"split_conditions":[1E0,9.36E1,1E0,1E0,1E0,6E0,1.6E1,1E0,1E0,7.86225E3,1E0,1E0,1E0,2E0,1E0,-2.0412369E-2,-1.1293344E-3,-1.6875831E-2,-8.820991E-3,-1.0343477E-2,-2.0621926E-2,-1.1816071E-2,-1.1212102E-3,1.1069047E-3,1.1586389E-2,-8.0172755E-3,6.5355527E-4,1.9373208E-2,1.4487187E-2,3.1522722E-3,9.472403E-3],"split_indices":[33,7,13,34,34,4,4,41,32,8,40,24,38,4,38,0,0,0,0,0,0,0,0,0,0,0,0,0,0,0,0],"split_type":[0,0,0,0,0,0,0,0,0,0,0,0,0,0,0,0,0,0,0,0,0,0,0,0,0,0,0,0,0,0,0],"sum_hessian":[1.4021006E3,4.8009576E2,9.220049E2,3.4352753E2,1.3656825E2,3.5512256E2,5.668823E2,1.8016814E2,1.6335938E2,6.157964E1,7.498862E1,1.7398125E2,1.811413E2,3.1113055E2,2.5575175E2,1.78037E2,2.131127E0,1.1478098E2,4.85784E1,4.770271E1,1.3876931E1,1.1351594E1,6.363702E1,7.329508E1,1.00686165E2,1.1575119E2,6.539011E1,8.086403E1,2.3026653E2,1.0495735E2,1.507944E2],"tree_param":{"num_deleted":"0","num_feature":"43","num_nodes":"31","size_leaf_vector":"1"}},{"base_weights":[-2.3800886E-4,-1.2197268E0,6.3491E-1,-1.4550594E0,-6.213364E-1,8.572582E-2,9.7816986E-1,-1.5794454E0,-1.0237818E0,-1.074027E0,-2.3924121E-1,5.9652025E-1,-4.047971E-1,1.3096958E0,5.712683E-1,-1.9426195E-2,-1.3587102E-2,-2.451756E-3,-1.3979613E-2,-9.581977E-3,-1.880457E-2,-6.1880064E-4,-9.82215E-3,1.0938647E-3,1.1456139E-2,-8.9831995E-3,-6.533737E-4,1.9171959E-2,1.4329135E-2,3.1151003E-3,9.3637165E-3],"categories":[],"categories_nodes":[],"categories_segments":[],"categories_sizes":[],"default_left":[0,0,0,0,0,0,0,0,0,0,0,0,0,0,0,0,0,0,0,0,0,0,0,0,0,0,0,0,0,0,0],"id":9,"left_children":[1,3,5,7,9,11,13,15,17,19,21,23,25,27,29,-1,-1,-1,-1,-1,-1,-1,-1,-1,-1,-1,-1,-1,-1,-1,-1],"loss_changes":[1.0868087E3,6.655353E1,1.7371051E2,1.657019E1,2.3393326E1,8.946792E1,7.560852E1,3.3034668E0,9.1981125E0,6.995842E0,8.168033E0,3.1803818E1,2.2002699E1,7.9401245E0,1.6620209E1,0E0,0E0,0E0,0E0,0E0,0E0,0E0,0E0,0E0,0E0,0E0,0E0,0E0,0E0,0E0,0E0],"parents":[2147483647,0,0,1,1,2,2,3,3,4,4,5,5,6,6,7,7,8,8,9,9,10,10,11,11,12,12,13,13,14,14],"right_children":[2,4,6,8,10,12,14,16,18,20,22,24,26,28,30,-1,-1,-1,-1,-1,-1,-1,-1,-1,-1,-1,-1,-1,-1,-1,-1],"split_conditions":[1E0,9.36E1,1E0,1E0,1E0,6E0,1.6E1,1E0,1.20605E3,7.2E1,1E0,1E0,1E0,2E0,1E0,-1.9426195E-2,-1.3587102E-2,-2.451756E-3,-1.3979613E-2,-9.581977E-3,-1.880457E-2,-6.1880064E-4,-9.82215E-3,1.0938647E-3,1.1456139E-2,-8.9831995E-3,-6.533737E-4,1.9171959E-2,1.4329135E-2,3.1151003E-3,9.3637165E-3],"split_indices":[33,7,13,15,34,4,4,38,8,4,3,24,18,4,38,0,0,0,0,0,0,0,0,0,0,0,0,0,0,0,0],"split_type":[0,0,0,0,0,0,0,0,0,0,0,0,0,0,0,0,0,0,0,0,0,0,0,0,0,0,0,0,0,0,0],"sum_hessian":[1.40106E3,4.7955438E2,9.2150574E2,3.4304056E2,1.3651382E2,3.5503424E2,5.664715E2,2.639984E2,7.904215E1,6.1532063E1,7.498176E1,1.7392058E2,1.8111365E2,3.1078482E2,2.5568669E2,2.3630379E2,2.7694622E1,1.2449998E1,6.6592155E1,4.1662327E1,1.9869738E1,5.76919E1,1.728986E1,7.329468E1,1.006259E2,9.023259E1,9.088106E1,8.074772E1,2.300371E2,1.049527E2,1.50734E2],"tree_param":{"num_deleted":"0","num_feature":"43","num_nodes":"31","size_leaf_vector":"1"}},{"base_weights":[-2.6724284E-4,-1.2068195E0,6.2775356E-1,-1.4400274E0,-6.144792E-1,8.472865E-2,9.673451E-1,-1.6581738E0,-1.1904843E0,-1.0625733E0,-2.3654908E-1,5.896983E-1,-4.000735E-1,1.2957472E0,5.6465435E-1,-2.0025248E-2,-9.6613733E-4,-1.6521757E-2,-8.5552735E-3,-1.0101759E-2,-2.0266157E-2,-1.1656344E-2,-1.0773628E-3,1.0809768E-3,1.1328026E-2,1.8854402E-3,-7.323677E-3,8.631218E-3,1.6094165E-2,7.918067E-3,-1.048979E-3],"categories":[],"categories_nodes":[],"categories_segments":[],"categories_sizes":[],"default_left":[0,0,0,0,0,0,0,0,0,0,0,0,0,0,0,0,0,0,0,0,0,0,0,0,0,0,0,0,0,0,0],"id":10,"left_children":[1,3,5,7,9,11,13,15,17,19,21,23,25,27,29,-1,-1,-1,-1,-1,-1,-1,-1,-1,-1,-1,-1,-1,-1,-1,-1],"loss_changes":[1.0623647E3,6.520593E1,1.6982562E2,1.6432007E1,2.289259E1,8.739418E1,7.406152E1,4.7514343E0,1.37539215E1,6.8983917E0,8.021007E0,3.109056E1,2.1767328E1,7.9591675E0,1.6530945E1,0E0,0E0,0E0,0E0,0E0,0E0,0E0,0E0,0E0,0E0,0E0,0E0,0E0,0E0,0E0,0E0],"parents":[2147483647,0,0,1,1,2,2,3,3,4,4,5,5,6,6,7,7,8,8,9,9,10,10,11,11,12,12,13,13,14,14],"right_children":[2,4,6,8,10,12,14,16,18,20,22,24,26,28,30,-1,-1,-1,-1,-1,-1,-1,-1,-1,-1,-1,-1,-1,-1,-1,-1],"split_conditions":[1E0,9.36E1,1E0,1E0,1E0,6E0,1.6E1,1E0,1E0,7.86225E3,1E0,1E0,1E0,1E0,5.5E1,-2.0025248E-2,-9.6613733E-4,-1.6521757E-2,-8.5552735E-3,-1.0101759E-2,-2.0266157E-2,-1.1656344E-2,-1.0773628E-3,1.0809768E-3,1.1328026E-2,1.8854402E-3,-7.323677E-3,8.631218E-3,1.6094165E-2,7.918067E-3,-1.048979E-3],"split_indices":[33,7,13,34,34,4,4,41,32,8,40,24,5,15,4,0,0,0,0,0,0,0,0,0,0,0,0,0,0,0,0],"split_type":[0,0,0,0,0,0,0,0,0,0,0,0,0,0,0,0,0,0,0,0,0,0,0,0,0,0,0,0,0,0,0],"sum_hessian":[1.3999388E3,4.789753E2,9.2096356E2,3.4251843E2,1.3645688E2,3.5494354E2,5.6602E2,1.7952336E2,1.6299506E2,6.1479145E1,7.497774E1,1.7385396E2,1.8108957E2,3.104048E2,2.5561525E2,1.773935E2,2.1298723E0,1.14474014E2,4.8521038E1,4.7647446E1,1.3831699E1,1.13429575E1,6.363478E1,7.3294235E1,1.0055972E2,4.9951862E1,1.3113771E2,2.6859688E1,2.835451E2,2.2234898E2,3.3266262E1],"tree_param":{"num_deleted":"0","num_feature":"43","num_nodes":"31","size_leaf_vector":"1"}},{"base_weights":[-3.0443928E-4,-1.1942186E0,6.2069744E-1,-1.4253862E0,-6.0776705E-1,8.376458E-2,9.566641E-1,-1.5485362E0,-9.9907786E-1,-1.0513462E0,-2.339312E-1,5.829738E-1,-3.9538592E-1,1.2820731E0,5.580732E-1,-1.9051787E-2,-1.3276556E-2,-1.8034942E-2,-8.899787E-3,-9.354357E-3,-1.8468777E-2,-5.820953E-4,-9.678094E-3,1.068241E-3,1.1201977E-2,-7.8026513E-3,7.3906453E-4,1.881676E-2,1.401007E-2,2.9998247E-3,9.17903E-3],"categories":[],"categories_nodes":[],"categories_segments":[],"categories_sizes":[],"default_left":[0,0,0,0,0,0,0,0,0,0,0,0,0,0,0,0,0,0,0,0,0,0,0,0,0,0,0,0,0,0,0],"id":11,"left_children":[1,3,5,7,9,11,13,15,17,19,21,23,25,27,29,-1,-1,-1,-1,-1,-1,-1,-1,-1,-1,-1,-1,-1,-1,-1,-1],"loss_changes":[1.0385765E3,6.3906006E1,1.6602115E2,1.619403E1,2.2404503E1,8.5365364E1,7.257733E1,3.2578735E0,9.004982E0,6.8336334E0,7.9773912E0,3.039637E1,2.1548616E1,7.8417053E0,1.6253738E1,0E0,0E0,0E0,0E0,0E0,0E0,0E0,0E0,0E0,0E0,0E0,0E0,0E0,0E0,0E0,0E0],"parents":[2147483647,0,0,1,1,2,2,3,3,4,4,5,5,6,6,7,7,8,8,9,9,10,10,11,11,12,12,13,13,14,14],"right_children":[2,4,6,8,10,12,14,16,18,20,22,24,26,28,30,-1,-1,-1,-1,-1,-1,-1,-1,-1,-1,-1,-1,-1,-1,-1,-1],"split_conditions":[1E0,9.36E1,1E0,1E0,1E0,6E0,1.6E1,1E0,1E0,7.2E1,1E0,1E0,1E0,2E0,1E0,-1.9051787E-2,-1.3276556E-2,-1.8034942E-2,-8.899787E-3,-9.354357E-3,-1.8468777E-2,-5.820953E-4,-9.678094E-3,1.068241E-3,1.1201977E-2,-7.8026513E-3,7.3906453E-4,1.881676E-2,1.401007E-2,2.9998247E-3,9.17903E-3],"split_indices":[33,7,13,15,34,4,4,38,34,4,3,24,38,4,38,0,0,0,0,0,0,0,0,0,0,0,0,0,0,0,0],"split_type":[0,0,0,0,0,0,0,0,0,0,0,0,0,0,0,0,0,0,0,0,0,0,0,0,0,0,0,0,0,0,0],"sum_hessian":[1.3987086E3,4.783311E2,9.2037756E2,3.419389E2,1.3639217E2,3.5483945E2,5.6553815E2,2.6306982E2,7.886907E1,6.1422306E1,7.496987E1,1.7378163E2,1.8105783E2,3.0998846E2,2.5554968E2,2.3544469E2,2.7625147E1,2.4448763E1,5.4420307E1,4.1616142E1,1.9806162E1,5.7686386E1,1.7283482E1,7.329376E1,1.0048787E2,1.1567563E2,6.5382195E1,8.049941E1,2.2948904E2,1.0493465E2,1.5061502E2],"tree_param":{"num_deleted":"0","num_feature":"43","num_nodes":"31","size_leaf_vector":"1"}},{"base_weights":[-3.3697966E-4,-1.1818591E0,6.137727E-1,-1.4110763E0,-6.011056E-1,-9.120949E-2,8.65197E-1,-1.6270297E0,-1.1645067E0,-1.040288E0,-2.31303E-1,-2.4300282E-1,5.795075E-1,1.1815183E0,5.1250684E-1,-1.9652255E-2,-8.0452114E-4,-1.5484584E-2,-5.9422976E-3,-9.867534E-3,-1.992865E-2,-1.1500241E-2,-1.0347458E-3,5.676164E-3,-5.274862E-3,1.5320778E-2,-2.812669E-3,1.635909E-2,9.698507E-3,8.767452E-3,-3.3705113E-3],"categories":[],"categories_nodes":[],"categories_segments":[],"categories_sizes":[],"default_left":[0,0,0,0,0,0,0,0,0,0,0,0,0,0,0,0,0,0,0,0,0,0,0,0,0,0,0,0,0,0,0],"id":12,"left_children":[1,3,5,7,9,11,13,15,17,19,21,23,25,27,29,-1,-1,-1,-1,-1,-1,-1,-1,-1,-1,-1,-1,-1,-1,-1,-1],"loss_changes":[1.0154332E3,6.2661438E1,1.633594E2,1.6045105E1,2.193118E1,2.4830147E1,7.49592E1,4.6824036E0,1.3515289E1,6.7578964E0,7.845716E0,2.854556E1,2.6172127E1,2.3433258E1,5.7027878E1,0E0,0E0,0E0,0E0,0E0,0E0,0E0,0E0,0E0,0E0,0E0,0E0,0E0,0E0,0E0,0E0],"parents":[2147483647,0,0,1,1,2,2,3,3,4,4,5,5,6,6,7,7,8,8,9,9,10,10,11,11,12,12,13,13,14,14],"right_children":[2,4,6,8,10,12,14,16,18,20,22,24,26,28,30,-1,-1,-1,-1,-1,-1,-1,-1,-1,-1,-1,-1,-1,-1,-1,-1],"split_conditions":[1E0,9.36E1,1E0,1E0,1E0,9.13E1,1.1E1,1E0,1E0,7.86225E3,1E0,2E0,2.8792E3,1E0,1E0,-1.9652255E-2,-8.0452114E-4,-1.5484584E-2,-5.9422976E-3,-9.867534E-3,-1.992865E-2,-1.1500241E-2,-1.0347458E-3,5.676164E-3,-5.274862E-3,1.5320778E-2,-2.812669E-3,1.635909E-2,9.698507E-3,8.767452E-3,-3.3705113E-3],"split_indices":[33,7,15,34,34,7,4,41,40,8,40,4,8,12,12,0,0,0,0,0,0,0,0,0,0,0,0,0,0,0,0],"split_type":[0,0,0,0,0,0,0,0,0,0,0,0,0,0,0,0,0,0,0,0,0,0,0,0,0,0,0,0,0,0,0],"sum_hessian":[1.3973894E3,4.7765128E2,9.197381E2,3.4132605E2,1.3632524E2,2.4184435E2,6.7789374E2,1.7875201E2,1.6257402E2,6.1360435E1,7.49648E1,1.978578E2,4.3986546E1,3.5597952E2,3.2191425E2,1.7662381E2,2.1282086E0,1.3489941E2,2.7674604E1,4.7582455E1,1.3777982E1,1.1333065E1,6.3631733E1,4.2430145E1,1.5542766E2,2.3378965E1,2.0607578E1,2.3418674E2,1.2179277E2,2.5195877E2,6.9955475E1],"tree_param":{"num_deleted":"0","num_feature":"43","num_nodes":"31","size_leaf_vector":"1"}},{"base_weights":[-3.6787568E-4,-1.1697466E0,6.068986E-1,-1.3970717E0,-5.9458405E-1,-9.0071484E-2,8.5565233E-1,-1.519138E0,-9.7528225E-1,-1.0294435E0,-2.2874805E-1,-2.4010277E-1,5.7308215E-1,1.1689847E0,5.0660014E-1,-1.8696077E-2,-1.2978933E-2,-2.0296092E-3,-1.3381215E-2,-9.133588E-3,-1.8148405E-2,-5.4651796E-4,-9.537166E-3,5.610523E-3,-5.2124043E-3,1.51585555E-2,-2.7803453E-3,1.6192162E-2,9.588063E-3,8.66736E-3,-3.3310768E-3],"categories":[],"categories_nodes":[],"categories_segments":[],"categories_sizes":[],"default_left":[0,0,0,0,0,0,0,0,0,0,0,0,0,0,0,0,0,0,0,0,0,0,0,0,0,0,0,0,0,0,0],"id":13,"left_children":[1,3,5,7,9,11,13,15,17,19,21,23,25,27,29,-1,-1,-1,-1,-1,-1,-1,-1,-1,-1,-1,-1,-1,-1,-1,-1],"loss_changes":[9.928384E2,6.145038E1,1.5968143E2,1.5851807E1,2.1469482E1,2.4261848E1,7.342078E1,3.2172852E0,8.957069E0,6.683899E0,7.7919745E0,2.7879667E1,2.5605728E1,2.3019958E1,5.571605E1,0E0,0E0,0E0,0E0,0E0,0E0,0E0,0E0,0E0,0E0,0E0,0E0,0E0,0E0,0E0,0E0],"parents":[2147483647,0,0,1,1,2,2,3,3,4,4,5,5,6,6,7,7,8,8,9,9,10,10,11,11,12,12,13,13,14,14],"right_children":[2,4,6,8,10,12,14,16,18,20,22,24,26,28,30,-1,-1,-1,-1,-1,-1,-1,-1,-1,-1,-1,-1,-1,-1,-1,-1],"split_conditions":[1E0,9.36E1,1E0,1E0,1E0,9.13E1,1.1E1,1E0,1.20605E3,7.2E1,1E0,2E0,2.8792E3,1E0,1E0,-1.8696077E-2,-1.2978933E-2,-2.0296092E-3,-1.3381215E-2,-9.133588E-3,-1.8148405E-2,-5.4651796E-4,-9.537166E-3,5.610523E-3,-5.2124043E-3,1.51585555E-2,-2.7803453E-3,1.6192162E-2,9.588063E-3,8.66736E-3,-3.3310768E-3],"split_indices":[33,7,15,15,34,7,4,38,8,4,3,4,8,12,12,0,0,0,0,0,0,0,0,0,0,0,0,0,0,0,0],"split_type":[0,0,0,0,0,0,0,0,0,0,0,0,0,0,0,0,0,0,0,0,0,0,0,0,0,0,0,0,0,0,0],"sum_hessian":[1.3960371E3,4.7691418E2,9.1912286E2,3.406632E2,1.3625098E2,2.4181548E2,6.7730743E2,2.6199512E2,7.86681E1,6.1295013E1,7.4955956E1,1.9784813E2,4.396734E1,3.5552228E2,3.2178516E2,2.3444916E2,2.7545956E1,1.2415859E1,6.625224E1,4.1562626E1,1.9732388E1,5.7680336E1,1.727562E1,4.2425404E1,1.5542273E2,2.3357655E1,2.0609684E1,2.3378668E2,1.2173559E2,2.5183539E2,6.994976E1],"tree_param":{"num_deleted":"0","num_feature":"43","num_nodes":"31","size_leaf_vector":"1"}},{"base_weights":[-3.9885571E-4,-1.1578404E0,6.0013103E-1,-1.3833481E0,-5.8810943E-1,-8.894932E-2,8.4626263E-1,-1.5979844E0,-1.1387962E0,-1.0187566E0,-2.2618233E-1,-2.3724046E-1,5.667607E-1,1.1566858E0,5.0077474E-1,-1.9304594E-2,-6.499405E-4,-1.5871717E-2,-8.0435015E-3,-9.640399E-3,-1.9608064E-2,-1.1347622E-2,-9.933378E-4,5.5457177E-3,-5.150754E-3,1.4999583E-2,-2.7484049E-3,1.6028754E-2,9.4792545E-3,8.568688E-3,-3.292118E-3],"categories":[],"categories_nodes":[],"categories_segments":[],"categories_sizes":[],"default_left":[0,0,0,0,0,0,0,0,0,0,0,0,0,0,0,0,0,0,0,0,0,0,0,0,0,0,0,0,0,0,0],"id":14,"left_children":[1,3,5,7,9,11,13,15,17,19,21,23,25,27,29,-1,-1,-1,-1,-1,-1,-1,-1,-1,-1,-1,-1,-1,-1,-1,-1],"loss_changes":[9.7081006E2,6.028589E1,1.560986E2,1.5795105E1,2.1021465E1,2.3707521E1,7.192932E1,4.620392E0,1.329274E1,6.629364E0,7.6751556E0,2.7229671E1,2.5054691E1,2.2622345E1,5.443653E1,0E0,0E0,0E0,0E0,0E0,0E0,0E0,0E0,0E0,0E0,0E0,0E0,0E0,0E0,0E0,0E0],"parents":[2147483647,0,0,1,1,2,2,3,3,4,4,5,5,6,6,7,7,8,8,9,9,10,10,11,11,12,12,13,13,14,14],"right_children":[2,4,6,8,10,12,14,16,18,20,22,24,26,28,30,-1,-1,-1,-1,-1,-1,-1,-1,-1,-1,-1,-1,-1,-1,-1,-1],"split_conditions":[1E0,9.36E1,1E0,1E0,1E0,9.13E1,1.1E1,1E0,1E0,7.86225E3,1E0,2E0,2.8792E3,1E0,1E0,-1.9304594E-2,-6.499405E-4,-1.5871717E-2,-8.0435015E-3,-9.640399E-3,-1.9608064E-2,-1.1347622E-2,-9.933378E-4,5.5457177E-3,-5.150754E-3,1.4999583E-2,-2.7484049E-3,1.6028754E-2,9.4792545E-3,8.568688E-3,-3.292118E-3],"split_indices":[33,7,15,34,34,7,4,41,32,8,40,4,8,12,12,0,0,0,0,0,0,0,0,0,0,0,0,0,0,0,0],"split_type":[0,0,0,0,0,0,0,0,0,0,0,0,0,0,0,0,0,0,0,0,0,0,0,0,0,0,0,0,0,0,0],"sum_hessian":[1.3946093E3,4.7614572E2,9.184636E2,3.3997098E2,1.3617473E2,2.4178139E2,6.766822E2,1.7788748E2,1.620835E2,6.1224854E1,7.494988E1,1.978358E2,4.394559E1,3.5503445E2,3.2164774E2,1.7576126E2,2.1262171E0,1.1371434E2,4.8369152E1,4.7508488E1,1.3716365E1,1.132198E1,6.3627903E1,4.242005E1,1.5541574E2,2.3333906E1,2.0611687E1,2.3336096E2,1.216735E2,2.5170403E2,6.994372E1],"tree_param":{"num_deleted":"0","num_feature":"43","num_nodes":"31","size_leaf_vector":"1"}},{"base_weights":[-4.30876E-4,-1.1462051E0,5.934669E-1,-1.3699672E0,-5.817694E-1,7.846742E-2,9.1664284E-1,-1.5833869E0,-1.1270995E0,-1.0082713E0,-2.2368792E-1,5.599866E-1,-3.8317528E-1,1.2327291E0,5.3128433E-1,-1.9128747E-2,-6.446743E-4,-1.5016086E-2,-5.6348364E-3,-8.919315E-3,-1.7842356E-2,-5.1203143E-4,-9.399252E-3,9.655156E-4,1.0814429E-2,1.9816884E-3,-7.084253E-3,1.816903E-2,1.3445533E-2,7.4988944E-3,-1.297053E-3],"categories":[],"categories_nodes":[],"categories_segments":[],"categories_sizes":[],"default_left":[0,0,0,0,0,0,0,0,0,0,0,0,0,0,0,0,0,0,0,0,0,0,0,0,0,0,0,0,0,0,0],"id":15,"left_children":[1,3,5,7,9,11,13,15,17,19,21,23,25,27,29,-1,-1,-1,-1,-1,-1,-1,-1,-1,-1,-1,-1,-1,-1,-1,-1],"loss_changes":[9.4937115E2,5.9160156E1,1.5273984E2,1.5570374E1,2.058422E1,7.9248985E1,6.789801E1,4.5327454E0,1.3066406E1,6.54533E0,7.611589E0,2.8682117E1,2.1094704E1,7.5759277E0,1.5910629E1,0E0,0E0,0E0,0E0,0E0,0E0,0E0,0E0,0E0,0E0,0E0,0E0,0E0,0E0,0E0,0E0],"parents":[2147483647,0,0,1,1,2,2,3,3,4,4,5,5,6,6,7,7,8,8,9,9,10,10,11,11,12,12,13,13,14,14],"right_children":[2,4,6,8,10,12,14,16,18,20,22,24,26,28,30,-1,-1,-1,-1,-1,-1,-1,-1,-1,-1,-1,-1,-1,-1,-1,-1],"split_conditions":[1E0,9.36E1,1E0,1E0,1E0,6E0,1.6E1,1E0,1E0,7.2E1,1E0,1E0,1E0,2E0,5.5E1,-1.9128747E-2,-6.446743E-4,-1.5016086E-2,-5.6348364E-3,-8.919315E-3,-1.7842356E-2,-5.1203143E-4,-9.399252E-3,9.655156E-4,1.0814429E-2,1.9816884E-3,-7.084253E-3,1.816903E-2,1.3445533E-2,7.4988944E-3,-1.297053E-3],"split_indices":[33,7,13,34,34,4,4,41,40,4,3,24,5,4,4,0,0,0,0,0,0,0,0,0,0,0,0,0,0,0,0],"split_type":[0,0,0,0,0,0,0,0,0,0,0,0,0,0,0,0,0,0,0,0,0,0,0,0,0,0,0,0,0,0,0],"sum_hessian":[1.3930806E3,4.7531854E2,9.1776196E2,3.3922693E2,1.3609161E2,3.544646E2,5.6329736E2,1.7739587E2,1.6183107E2,6.1151478E1,7.494013E1,1.7350247E2,1.8096213E2,3.081081E2,2.5518929E2,1.7526973E2,2.1261425E0,1.3421243E2,2.7618637E1,4.1502346E1,1.9649132E1,5.7673782E1,1.7266348E1,7.3282715E1,1.0021976E2,4.9941364E1,1.3102077E2,7.9894264E1,2.2821384E2,2.2195659E2,3.3232693E1],"tree_param":{"num_deleted":"0","num_feature":"43","num_nodes":"31","size_leaf_vector":"1"}},{"base_weights":[-4.5413905E-4,-1.1347644E0,5.869305E-1,-1.3568568E0,-5.754731E-1,-8.946675E-2,8.289033E-1,-1.4779733E0,-9.396568E-1,-9.9793315E-1,-2.211827E-1,-2.347508E-1,5.534109E-1,1.1898913E0,5.415833E-1,-1.8200902E-2,-1.2538744E-2,-1.7275586E-3,-1.2941214E-2,-9.419976E-3,-1.930319E-2,-1.1198345E-2,-9.5309416E-4,5.4475386E-3,-5.085756E-3,1.47357285E-2,-2.7660574E-3,1.0134994E-2,1.6274545E-2,8.99975E-3,-2.1749386E-3],"categories":[],"categories_nodes":[],"categories_segments":[],"categories_sizes":[],"default_left":[0,0,0,0,0,0,0,0,0,0,0,0,0,0,0,0,0,0,0,0,0,0,0,0,0,0,0,0,0,0,0],"id":16,"left_children":[1,3,5,7,9,11,13,15,17,19,21,23,25,27,29,-1,-1,-1,-1,-1,-1,-1,-1,-1,-1,-1,-1,-1,-1,-1,-1],"loss_changes":[9.284715E2,5.807788E1,1.5039673E2,1.5513794E1,2.015968E1,2.2761545E1,6.93244E1,3.2072754E0,8.761116E0,6.5115585E0,7.5091496E0,2.639666E1,2.434769E1,1.6190094E1,5.8172043E1,0E0,0E0,0E0,0E0,0E0,0E0,0E0,0E0,0E0,0E0,0E0,0E0,0E0,0E0,0E0,0E0],"parents":[2147483647,0,0,1,1,2,2,3,3,4,4,5,5,6,6,7,7,8,8,9,9,10,10,11,11,12,12,13,13,14,14],"right_children":[2,4,6,8,10,12,14,16,18,20,22,24,26,28,30,-1,-1,-1,-1,-1,-1,-1,-1,-1,-1,-1,-1,-1,-1,-1,-1],"split_conditions":[1E0,9.36E1,1E0,1E0,1E0,9.13E1,8E0,1E0,1.20605E3,7.86225E3,1E0,2E0,2.8792E3,6.76E1,1E0,-1.8200902E-2,-1.2538744E-2,-1.7275586E-3,-1.2941214E-2,-9.419976E-3,-1.930319E-2,-1.1198345E-2,-9.5309416E-4,5.4475386E-3,-5.085756E-3,1.47357285E-2,-2.7660574E-3,1.0134994E-2,1.6274545E-2,8.99975E-3,-2.1749386E-3],"split_indices":[33,7,15,15,34,7,4,38,8,8,40,4,8,7,12,0,0,0,0,0,0,0,0,0,0,0,0,0,0,0,0],"split_type":[0,0,0,0,0,0,0,0,0,0,0,0,0,0,0,0,0,0,0,0,0,0,0,0,0,0,0,0,0,0,0],"sum_hessian":[1.3914384E3,4.744542E2,9.169842E2,3.3844742E2,1.3600677E2,2.416613E2,6.753229E2,2.6013736E2,7.8310074E1,6.1073654E1,7.493311E1,1.9776402E2,4.3897274E1,2.9774112E2,3.7758173E2,2.3273363E2,2.7403732E1,1.238513E1,6.592494E1,4.7426247E1,1.3647409E1,1.1309766E1,6.362335E1,4.240556E1,1.5535846E2,2.3287039E1,2.0610235E1,1.0195272E2,1.957884E2,2.9221884E2,8.53629E1],"tree_param":{"num_deleted":"0","num_feature":"43","num_nodes":"31","size_leaf_vector":"1"}},{"base_weights":[-4.8468282E-4,-1.1235335E0,5.804629E-1,-1.343987E0,-5.693065E-1,-8.835763E-2,8.1993896E-1,-1.5564729E0,-1.1027691E0,-9.8778576E-1,-2.1874738E-1,-2.3195873E-1,5.473833E-1,1.123111E0,4.8355046E-1,-1.8806895E-2,-4.9539004E-4,-1.5415658E-2,-7.6978067E-3,-9.317558E-3,-1.9141342E-2,-4.786029E-4,-9.264253E-3,5.384799E-3,-5.025734E-3,1.4584975E-2,-2.7342886E-3,1.55739635E-2,9.199803E-3,8.281826E-3,-3.193003E-3],"categories":[],"categories_nodes":[],"categories_segments":[],"categories_sizes":[],"default_left":[0,0,0,0,0,0,0,0,0,0,0,0,0,0,0,0,0,0,0,0,0,0,0,0,0,0,0,0,0,0,0],"id":17,"left_children":[1,3,5,7,9,11,13,15,17,19,21,23,25,27,29,-1,-1,-1,-1,-1,-1,-1,-1,-1,-1,-1,-1,-1,-1,-1,-1],"loss_changes":[9.080927E2,5.7019714E1,1.470545E2,1.5366394E1,1.9745075E1,2.224352E1,6.819064E1,4.4798584E0,1.2912262E1,6.4236603E0,7.436061E0,2.5781967E1,2.3831102E1,2.1352325E1,5.0922714E1,0E0,0E0,0E0,0E0,0E0,0E0,0E0,0E0,0E0,0E0,0E0,0E0,0E0,0E0,0E0,0E0],"parents":[2147483647,0,0,1,1,2,2,3,3,4,4,5,5,6,6,7,7,8,8,9,9,10,10,11,11,12,12,13,13,14,14],"right_children":[2,4,6,8,10,12,14,16,18,20,22,24,26,28,30,-1,-1,-1,-1,-1,-1,-1,-1,-1,-1,-1,-1,-1,-1,-1,-1],"split_conditions":[1E0,9.36E1,1E0,1E0,1E0,9.13E1,1.1E1,1E0,1E0,7.86225E3,1E0,2E0,2.8792E3,1E0,1E0,-1.8806895E-2,-4.9539004E-4,-1.5415658E-2,-7.6978067E-3,-9.317558E-3,-1.9141342E-2,-4.786029E-4,-9.264253E-3,5.384799E-3,-5.025734E-3,1.4584975E-2,-2.7342886E-3,1.55739635E-2,9.199803E-3,8.281826E-3,-3.193003E-3],"split_indices":[33,7,15,34,34,7,4,41,32,8,3,4,8,12,12,0,0,0,0,0,0,0,0,0,0,0,0,0,0,0,0],"split_type":[0,0,0,0,0,0,0,0,0,0,0,0,0,0,0,0,0,0,0,0,0,0,0,0,0,0,0,0,0,0,0],"sum_hessian":[1.3897714E3,4.7356027E2,9.162111E2,3.3764484E2,1.3591544E2,2.416155E2,6.7459564E2,1.7638701E2,1.6125783E2,6.0992935E1,7.49225E1,1.9774617E2,4.3869324E1,3.5342435E2,3.2117133E2,1.7426317E2,2.1238403E0,1.1302211E2,4.8235714E1,4.738588E1,1.3607057E1,5.7666763E1,1.7255737E1,4.2398743E1,1.5534741E2,2.3257133E1,2.0612192E1,2.3198709E2,1.2143724E2,2.5124945E2,6.9921875E1],"tree_param":{"num_deleted":"0","num_feature":"43","num_nodes":"31","size_leaf_vector":"1"}},{"base_weights":[-5.137068E-4,-1.112526E0,5.740885E-1,-1.3314339E0,-5.631941E-1,-8.726377E-2,8.1111E-1,-1.4518046E0,-9.178056E-1,-9.7780114E-1,-2.1630143E-1,-2.2920264E-1,5.4144865E-1,1.1665406E0,5.2883E-1,-1.7885545E-2,-1.2265422E-2,-1.5734145E-3,-1.2666184E-2,-8.602486E-3,-1.7421326E-2,-1.1052295E-2,-9.139896E-4,5.3228484E-3,-4.9664816E-3,1.4437061E-2,-2.702896E-3,9.9218525E-3,1.5968092E-2,8.795779E-3,-2.1382726E-3],"categories":[],"categories_nodes":[],"categories_segments":[],"categories_sizes":[],"default_left":[0,0,0,0,0,0,0,0,0,0,0,0,0,0,0,0,0,0,0,0,0,0,0,0,0,0,0,0,0,0,0],"id":18,"left_children":[1,3,5,7,9,11,13,15,17,19,21,23,25,27,29,-1,-1,-1,-1,-1,-1,-1,-1,-1,-1,-1,-1,-1,-1,-1,-1],"loss_changes":[8.882263E2,5.600836E1,1.4379535E2,1.524115E1,1.9343685E1,2.1738062E1,6.6914825E1,3.1835938E0,8.5787735E0,6.3910294E0,7.347518E0,2.5181904E1,2.3328007E1,1.5667694E1,5.567179E1,0E0,0E0,0E0,0E0,0E0,0E0,0E0,0E0,0E0,0E0,0E0,0E0,0E0,0E0,0E0,0E0],"parents":[2147483647,0,0,1,1,2,2,3,3,4,4,5,5,6,6,7,7,8,8,9,9,10,10,11,11,12,12,13,13,14,14],"right_children":[2,4,6,8,10,12,14,16,18,20,22,24,26,28,30,-1,-1,-1,-1,-1,-1,-1,-1,-1,-1,-1,-1,-1,-1,-1,-1],"split_conditions":[1E0,9.36E1,1E0,1E0,1E0,9.13E1,8E0,1E0,1.20605E3,7.2E1,1E0,2E0,2.8792E3,6.76E1,1E0,-1.7885545E-2,-1.2265422E-2,-1.5734145E-3,-1.2666184E-2,-8.602486E-3,-1.7421326E-2,-1.1052295E-2,-9.139896E-4,5.3228484E-3,-4.9664816E-3,1.4437061E-2,-2.702896E-3,9.9218525E-3,1.5968092E-2,8.795779E-3,-2.1382726E-3],"split_indices":[33,7,15,15,34,7,4,38,8,4,40,4,8,7,12,0,0,0,0,0,0,0,0,0,0,0,0,0,0,0,0],"split_type":[0,0,0,0,0,0,0,0,0,0,0,0,0,0,0,0,0,0,0,0,0,0,0,0,0,0,0,0,0,0,0],"sum_hessian":[1.3880156E3,4.7261667E2,9.153989E2,3.367934E2,1.3582326E2,2.415651E2,6.7383386E2,2.58738E2,7.80554E1,6.0908665E1,7.49146E1,1.9772592E2,4.383916E1,2.9672128E2,3.7711255E2,2.3143661E2,2.7301386E1,1.2367489E1,6.5687904E1,4.1397392E1,1.9511274E1,1.1296477E1,6.361812E1,4.239139E1,1.5533453E2,2.3225113E1,2.0614048E1,1.01792305E2,1.9492899E2,2.9176013E2,8.535243E1],"tree_param":{"num_deleted":"0","num_feature":"43","num_nodes":"31","size_leaf_vector":"1"}},{"base_weights":[-5.4175255E-4,-1.1016955E0,5.6780916E-1,-1.3190836E0,-5.5717975E-1,7.341581E-2,8.7912774E-1,-1.5308329E0,-1.0793264E0,-9.6794575E-1,-2.1392375E-1,5.370719E-1,-3.704342E-1,1.1877519E0,5.0494903E-1,-1.850046E-2,-3.4983837E-4,-1.5121965E-2,-7.4671204E-3,-9.106462E-3,-1.885844E-2,-4.4621318E-4,-9.132066E-3,8.6062955E-4,1.0431429E-2,-7.447218E-3,9.2616037E-4,1.756811E-2,1.2935809E-2,2.440409E-3,8.501851E-3],"categories":[],"categories_nodes":[],"categories_segments":[],"categories_sizes":[],"default_left":[0,0,0,0,0,0,0,0,0,0,0,0,0,0,0,0,0,0,0,0,0,0,0,0,0,0,0,0,0,0,0],"id":19,"left_children":[1,3,5,7,9,11,13,15,17,19,21,23,25,27,29,-1,-1,-1,-1,-1,-1,-1,-1,-1,-1,-1,-1,-1,-1,-1,-1],"loss_changes":[8.688488E2,5.5019226E1,1.4075336E2,1.518335E1,1.894865E1,7.326867E1,6.4076324E1,4.431305E0,1.2694397E1,6.320942E0,7.2651844E0,2.7046616E1,2.0700329E1,7.2590027E0,1.5646545E1,0E0,0E0,0E0,0E0,0E0,0E0,0E0,0E0,0E0,0E0,0E0,0E0,0E0,0E0,0E0,0E0],"parents":[2147483647,0,0,1,1,2,2,3,3,4,4,5,5,6,6,7,7,8,8,9,9,10,10,11,11,12,12,13,13,14,14],"right_children":[2,4,6,8,10,12,14,16,18,20,22,24,26,28,30,-1,-1,-1,-1,-1,-1,-1,-1,-1,-1,-1,-1,-1,-1,-1,-1],"split_conditions":[1E0,9.36E1,1E0,1E0,1E0,6E0,1.6E1,1E0,1E0,7.86225E3,1E0,1E0,1E0,2E0,1E0,-1.850046E-2,-3.4983837E-4,-1.5121965E-2,-7.4671204E-3,-9.106462E-3,-1.885844E-2,-4.4621318E-4,-9.132066E-3,8.6062955E-4,1.0431429E-2,-7.447218E-3,9.2616037E-4,1.756811E-2,1.2935809E-2,2.440409E-3,8.501851E-3],"split_indices":[33,7,13,34,34,4,4,41,32,8,3,24,38,4,38,0,0,0,0,0,0,0,0,0,0,0,0,0,0,0,0],"split_type":[0,0,0,0,0,0,0,0,0,0,0,0,0,0,0,0,0,0,0,0,0,0,0,0,0,0,0,0,0,0,0],"sum_hessian":[1.3862009E3,4.7164792E2,9.14553E2,3.359242E2,1.3572372E2,3.5397928E2,5.6057367E2,1.7529292E2,1.6063127E2,6.0820553E1,7.4903175E1,1.7313795E2,1.8084134E2,3.0585385E2,2.547198E2,1.7317166E2,2.1212504E0,1.12498924E2,4.8132347E1,4.7292793E1,1.3527759E1,5.7659317E1,1.724386E1,7.325724E1,9.988071E1,1.15491E2,6.535034E1,7.91385E1,2.2671538E2,1.0474729E2,1.4997252E2],"tree_param":{"num_deleted":"0","num_feature":"43","num_nodes":"31","size_leaf_vector":"1"}},{"base_weights":[-5.6262076E-4,-1.0910782E0,5.616513E-1,-1.3070308E0,-5.512301E-1,-8.785422E-2,7.948521E-1,-1.5178963E0,-1.0686436E0,-9.582698E-1,-2.1153493E-1,-2.268722E-1,5.2853364E-1,1.091164E0,4.672108E-1,-1.8344773E-2,-3.4700226E-4,-1.5179777E-2,-7.7904495E-3,-8.403166E-3,-1.7146604E-2,-1.0909345E-2,-8.759891E-4,5.2295392E-3,-4.905206E-3,1.4196252E-2,-2.7324862E-3,1.5144719E-2,8.929402E-3,8.007036E-3,-3.0877201E-3],"categories":[],"categories_nodes":[],"categories_segments":[],"categories_sizes":[],"default_left":[0,0,0,0,0,0,0,0,0,0,0,0,0,0,0,0,0,0,0,0,0,0,0,0,0,0,0,0,0,0,0],"id":20,"left_children":[1,3,5,7,9,11,13,15,17,19,21,23,25,27,29,-1,-1,-1,-1,-1,-1,-1,-1,-1,-1,-1,-1,-1,-1,-1,-1],"loss_changes":[8.499792E2,5.4071472E1,1.3867813E2,1.500116E1,1.8567451E1,2.0861433E1,6.468771E1,4.3539734E0,1.2536438E1,6.274517E0,7.190089E0,2.4421364E1,2.2734753E1,2.0223633E1,4.7573273E1,0E0,0E0,0E0,0E0,0E0,0E0,0E0,0E0,0E0,0E0,0E0,0E0,0E0,0E0,0E0,0E0],"parents":[2147483647,0,0,1,1,2,2,3,3,4,4,5,5,6,6,7,7,8,8,9,9,10,10,11,11,12,12,13,13,14,14],"right_children":[2,4,6,8,10,12,14,16,18,20,22,24,26,28,30,-1,-1,-1,-1,-1,-1,-1,-1,-1,-1,-1,-1,-1,-1,-1,-1],"split_conditions":[1E0,9.36E1,1E0,1E0,1E0,9.13E1,1.1E1,1E0,1E0,7.2E1,1E0,2E0,2.8792E3,1E0,1E0,-1.8344773E-2,-3.4700226E-4,-1.5179777E-2,-7.7904495E-3,-8.403166E-3,-1.7146604E-2,-1.0909345E-2,-8.759891E-4,5.2295392E-3,-4.905206E-3,1.4196252E-2,-2.7324862E-3,1.5144719E-2,8.929402E-3,8.007036E-3,-3.0877201E-3],"split_indices":[33,7,15,34,34,7,4,41,15,4,40,4,8,12,12,0,0,0,0,0,0,0,0,0,0,0,0,0,0,0,0],"split_type":[0,0,0,0,0,0,0,0,0,0,0,0,0,0,0,0,0,0,0,0,0,0,0,0,0,0,0,0,0,0,0],"sum_hessian":[1.3842677E3,4.7063297E2,9.136347E2,3.3500873E2,1.3562422E2,2.4141937E2,6.7221533E2,1.7468793E2,1.6032082E2,6.0729786E1,7.489443E1,1.9764308E2,4.3776287E1,3.515948E2,3.2062054E2,1.7256673E2,2.1211965E0,1.0645993E2,5.3860886E1,4.1322243E1,1.9407543E1,1.1282174E1,6.3612255E1,4.237374E1,1.5526935E2,2.3165155E1,2.061113E1,2.3042805E2,1.2116672E2,2.5072444E2,6.98961E1],"tree_param":{"num_deleted":"0","num_feature":"43","num_nodes":"31","size_leaf_vector":"1"}},{"base_weights":[-5.909355E-4,-1.0806471E0,5.555454E-1,-1.2952018E0,-5.453746E-1,-8.67714E-2,7.864002E-1,-1.5052674E0,-1.0581099E0,-9.4871455E-1,-2.0921339E-1,-2.2418196E-1,5.2286667E-1,1.0178298E0,3.737114E-1,-1.8192826E-2,-3.4419048E-4,-1.4169269E-2,-4.9939407E-3,-8.901258E-3,-1.8588657E-2,-4.148246E-4,-9.002593E-3,5.1695295E-3,-4.847485E-3,1.4055467E-2,-2.701116E-3,1.4361789E-2,7.6329513E-3,6.779189E-3,-4.586839E-3],"categories":[],"categories_nodes":[],"categories_segments":[],"categories_sizes":[],"default_left":[0,0,0,0,0,0,0,0,0,0,0,0,0,0,0,0,0,0,0,0,0,0,0,0,0,0,0,0,0,0,0],"id":21,"left_children":[1,3,5,7,9,11,13,15,17,19,21,23,25,27,29,-1,-1,-1,-1,-1,-1,-1,-1,-1,-1,-1,-1,-1,-1,-1,-1],"loss_changes":[8.315509E2,5.314801E1,1.3562933E2,1.4830566E1,1.8192005E1,2.0388947E1,6.3692505E1,4.2792053E0,1.2506577E1,6.2262917E0,7.098808E0,2.3853565E1,2.2260672E1,2.9056885E1,3.593558E1,0E0,0E0,0E0,0E0,0E0,0E0,0E0,0E0,0E0,0E0,0E0,0E0,0E0,0E0,0E0,0E0],"parents":[2147483647,0,0,1,1,2,2,3,3,4,4,5,5,6,6,7,7,8,8,9,9,10,10,11,11,12,12,13,13,14,14],"right_children":[2,4,6,8,10,12,14,16,18,20,22,24,26,28,30,-1,-1,-1,-1,-1,-1,-1,-1,-1,-1,-1,-1,-1,-1,-1,-1],"split_conditions":[1E0,9.36E1,1E0,1E0,1E0,9.13E1,1.7E1,1E0,1E0,7.86225E3,1E0,2E0,2.8792E3,1E0,1E0,-1.8192826E-2,-3.4419048E-4,-1.4169269E-2,-4.9939407E-3,-8.901258E-3,-1.8588657E-2,-4.148246E-4,-9.002593E-3,5.1695295E-3,-4.847485E-3,1.4055467E-2,-2.701116E-3,1.4361789E-2,7.6329513E-3,6.779189E-3,-4.586839E-3],"split_indices":[33,7,15,34,34,7,4,41,40,8,3,4,8,12,12,0,0,0,0,0,0,0,0,0,0,0,0,0,0,0,0],"split_type":[0,0,0,0,0,0,0,0,0,0,0,0,0,0,0,0,0,0,0,0,0,0,0,0,0,0,0,0,0,0,0],"sum_hessian":[1.3823093E3,4.6958484E2,9.127245E2,3.3406717E2,1.3551767E2,2.4135886E2,6.7136566E2,1.7406213E2,1.6000502E2,6.0635426E1,7.488224E1,1.9761801E2,4.374085E1,4.290464E2,2.4231924E2,1.71941E2,2.1211436E0,1.3253949E2,2.746553E1,4.7193005E1,1.3442421E1,5.7651455E1,1.7230785E1,4.236512E1,1.5525288E2,2.3127869E1,2.0612982E1,2.8710385E2,1.4194255E2,1.9329579E2,4.9023464E1],"tree_param":{"num_deleted":"0","num_feature":"43","num_nodes":"31","size_leaf_vector":"1"}},{"base_weights":[-6.1943417E-4,-1.0703838E0,5.4951376E-1,-1.2835984E0,-5.395809E-1,-8.570314E-2,7.780517E-1,-1.4029139E0,-8.757916E-1,-3.3726385E-1,-1.2078354E0,-2.2152594E-1,5.1728356E-1,1.1241027E0,5.0448364E-1,-1.7302308E-2,-1.1705113E-2,-1.1997566E-3,-1.21527E-2,-8.489712E-3,-1.6829657E-3,3.6977632E-3,-1.6789854E-2,5.1102634E-3,-4.790494E-3,1.3917183E-2,-2.6701167E-3,9.541771E-3,1.54089285E-2,8.406826E-3,-2.0665093E-3],"categories":[],"categories_nodes":[],"categories_segments":[],"categories_sizes":[],"default_left":[0,0,0,0,0,0,0,0,0,0,0,0,0,0,0,0,0,0,0,0,0,0,0,0,0,0,0,0,0,0,0],"id":22,"left_children":[1,3,5,7,9,11,13,15,17,19,21,23,25,27,29,-1,-1,-1,-1,-1,-1,-1,-1,-1,-1,-1,-1,-1,-1,-1,-1],"loss_changes":[8.135551E2,5.2255493E1,1.326496E2,1.4792297E1,1.7875816E1,1.9927795E1,6.2834656E1,3.236908E0,8.381176E0,7.5990896E0,9.889606E0,2.3299227E1,2.179857E1,1.4675568E1,5.1028572E1,0E0,0E0,0E0,0E0,0E0,0E0,0E0,0E0,0E0,0E0,0E0,0E0,0E0,0E0,0E0,0E0],"parents":[2147483647,0,0,1,1,2,2,3,3,4,4,5,5,6,6,7,7,8,8,9,9,10,10,11,11,12,12,13,13,14,14],"right_children":[2,4,6,8,10,12,14,16,18,20,22,24,26,28,30,-1,-1,-1,-1,-1,-1,-1,-1,-1,-1,-1,-1,-1,-1,-1,-1],"split_conditions":[1E0,9.36E1,1E0,1E0,7.1E1,9.13E1,8E0,1E0,1.20605E3,1E0,-1.8375E2,2E0,2.8792E3,6.76E1,1E0,-1.7302308E-2,-1.1705113E-2,-1.1997566E-3,-1.21527E-2,-8.489712E-3,-1.6829657E-3,3.6977632E-3,-1.6789854E-2,5.1102634E-3,-4.790494E-3,1.3917183E-2,-2.6701167E-3,9.541771E-3,1.54089285E-2,8.406826E-3,-2.0665093E-3],"split_indices":[33,7,15,15,4,7,4,38,8,34,42,4,8,7,12,0,0,0,0,0,0,0,0,0,0,0,0,0,0,0,0],"split_type":[0,0,0,0,0,0,0,0,0,0,0,0,0,0,0,0,0,0,0,0,0,0,0,0,0,0,0,0,0,0,0],"sum_hessian":[1.3803005E3,4.6850626E2,9.117943E2,3.3309488E2,1.3541139E2,2.4129433E2,6.7049994E2,2.5561432E2,7.748055E1,1.05215996E2,3.0195395E1,1.9759084E2,4.3703487E1,2.944931E2,3.7600684E2,2.2855928E2,2.7055042E1,1.2319759E1,6.51608E1,3.5192276E1,7.002372E1,3.3498747E0,2.684552E1,4.2356033E1,1.552348E2,2.3088753E1,2.0614735E1,1.01439835E2,1.9305328E2,2.9068402E2,8.5322815E1],"tree_param":{"num_deleted":"0","num_feature":"43","num_nodes":"31","size_leaf_vector":"1"}},{"base_weights":[-6.341942E-4,-1.0602295E0,5.435797E-1,-1.2721753E0,-5.33732E-1,6.864903E-2,8.438818E-1,-1.48194E0,-1.0361379E0,-3.334586E-1,-1.1964402E0,6.0880834E-1,-2.870551E-1,1.1450434E0,4.8112103E-1,-1.7914413E-2,-2.0452E-4,-1.45889E-2,-7.0255906E-3,-8.398857E-3,-1.6632242E-3,3.6626074E-3,-1.6638586E-2,6.789979E-4,1.0499021E-2,-7.671605E-3,6.4291124E-4,1.7026572E-2,1.24416975E-2,2.2092392E-3,8.185166E-3],"categories":[],"categories_nodes":[],"categories_segments":[],"categories_sizes":[],"default_left":[0,0,0,0,0,0,0,0,0,0,0,0,0,0,0,0,0,0,0,0,0,0,0,0,0,0,0,0,0,0,0],"id":23,"left_children":[1,3,5,7,9,11,13,15,17,19,21,23,25,27,29,-1,-1,-1,-1,-1,-1,-1,-1,-1,-1,-1,-1,-1,-1,-1,-1],"loss_changes":[7.95964E2,5.140448E1,1.2989484E2,1.469751E1,1.7533943E1,6.830817E1,6.0284973E1,4.2406616E0,1.23741455E1,7.435894E0,9.712753E0,2.088313E1,2.6023705E1,7.0987244E0,1.519735E1,0E0,0E0,0E0,0E0,0E0,0E0,0E0,0E0,0E0,0E0,0E0,0E0,0E0,0E0,0E0,0E0],"parents":[2147483647,0,0,1,1,2,2,3,3,4,4,5,5,6,6,7,7,8,8,9,9,10,10,11,11,12,12,13,13,14,14],"right_children":[2,4,6,8,10,12,14,16,18,20,22,24,26,28,30,-1,-1,-1,-1,-1,-1,-1,-1,-1,-1,-1,-1,-1,-1,-1,-1],"split_conditions":[1E0,9.36E1,1E0,1E0,7.1E1,4E0,1.6E1,1E0,1E0,1E0,-1.8375E2,1E0,1E0,2E0,1E0,-1.7914413E-2,-2.0452E-4,-1.45889E-2,-7.0255906E-3,-8.398857E-3,-1.6632242E-3,3.6626074E-3,-1.6638586E-2,6.789979E-4,1.0499021E-2,-7.671605E-3,6.4291124E-4,1.7026572E-2,1.24416975E-2,2.2092392E-3,8.185166E-3],"split_indices":[33,7,13,34,4,4,4,41,32,34,42,12,18,4,38,0,0,0,0,0,0,0,0,0,0,0,0,0,0,0,0],"split_type":[0,0,0,0,0,0,0,0,0,0,0,0,0,0,0,0,0,0,0,0,0,0,0,0,0,0,0,0,0,0,0],"sum_hessian":[1.3782406E3,4.674153E2,9.108253E2,3.3210953E2,1.3530576E2,3.5343573E2,5.573896E2,1.7281454E2,1.59295E2,1.0517914E2,3.0126621E1,1.4016501E2,2.1327072E2,3.032185E2,2.5417111E2,1.7069623E2,2.1183271E0,1.1139267E2,4.7902325E1,3.5158947E1,7.002019E1,3.3512096E0,2.6775412E1,4.655084E1,9.361417E1,1.0418371E2,1.0908701E2,7.827921E1,2.2493929E2,1.0461544E2,1.4955568E2],"tree_param":{"num_deleted":"0","num_feature":"43","num_nodes":"31","size_leaf_vector":"1"}},{"base_weights":[-6.42617E-4,-1.0502788E0,5.377385E-1,-1.2610228E0,-5.2796185E-1,-8.5846364E-2,7.625499E-1,-1.3799129E0,-8.558992E-1,-3.2969928E-1,-1.1852667E0,-2.1879369E-1,5.050791E-1,9.8947906E-1,3.594389E-1,-1.70263E-2,-1.1457847E-2,-1.6118769E-2,-7.3588467E-3,-8.309178E-3,-1.6437148E-3,3.6278109E-3,-1.6490465E-2,5.019992E-3,-4.7238716E-3,1.3692294E-2,-2.6969656E-3,1.3975495E-2,7.414134E-3,6.5411218E-3,-4.478924E-3],"categories":[],"categories_nodes":[],"categories_segments":[],"categories_sizes":[],"default_left":[0,0,0,0,0,0,0,0,0,0,0,0,0,0,0,0,0,0,0,0,0,0,0,0,0,0,0,0,0,0,0],"id":24,"left_children":[1,3,5,7,9,11,13,15,17,19,21,23,25,27,29,-1,-1,-1,-1,-1,-1,-1,-1,-1,-1,-1,-1,-1,-1,-1,-1],"loss_changes":[7.788223E2,5.0585144E1,1.2782242E2,1.4582825E1,1.720176E1,1.9103168E1,6.0766846E1,3.2237244E0,8.21883E0,7.276518E0,9.540524E0,2.2556553E1,2.125573E1,2.7524994E1,3.3762253E1,0E0,0E0,0E0,0E0,0E0,0E0,0E0,0E0,0E0,0E0,0E0,0E0,0E0,0E0,0E0,0E0],"parents":[2147483647,0,0,1,1,2,2,3,3,4,4,5,5,6,6,7,7,8,8,9,9,10,10,11,11,12,12,13,13,14,14],"right_children":[2,4,6,8,10,12,14,16,18,20,22,24,26,28,30,-1,-1,-1,-1,-1,-1,-1,-1,-1,-1,-1,-1,-1,-1,-1,-1],"split_conditions":[1E0,9.36E1,1E0,1E0,7.1E1,9.13E1,1.7E1,1E0,1E0,1E0,-1.8375E2,2E0,2.8792E3,1E0,1E0,-1.70263E-2,-1.1457847E-2,-1.6118769E-2,-7.3588467E-3,-8.309178E-3,-1.6437148E-3,3.6278109E-3,-1.6490465E-2,5.019992E-3,-4.7238716E-3,1.3692294E-2,-2.6969656E-3,1.3975495E-2,7.414134E-3,6.5411218E-3,-4.478924E-3],"split_indices":[33,7,15,15,4,7,4,38,34,34,42,4,8,12,12,0,0,0,0,0,0,0,0,0,0,0,0,0,0,0,0],"split_type":[0,0,0,0,0,0,0,0,0,0,0,0,0,0,0,0,0,0,0,0,0,0,0,0,0,0,0,0,0,0,0],"sum_hessian":[1.3760991E3,4.6627774E2,9.0982135E2,3.3108133E2,1.3519643E2,2.4113016E2,6.686912E2,2.5390715E2,7.717418E1,1.0514137E2,3.005505E1,1.9750064E2,4.3629513E1,4.2674606E2,2.4194514E2,2.2697649E2,2.6930668E1,2.3611568E1,5.356261E1,3.5124775E1,7.00166E1,3.352511E0,2.6702538E1,4.23353E1,1.5516534E2,2.3017538E1,2.0611975E1,2.8508487E2,1.4166118E2,1.9294014E2,4.900501E1],"tree_param":{"num_deleted":"0","num_feature":"43","num_nodes":"31","size_leaf_vector":"1"}},{"base_weights":[-6.7002355E-4,-1.040487E0,5.3195065E-1,-1.2500592E0,-5.2226853E-1,-8.479352E-2,7.5454164E-1,-1.4592006E0,-1.0155097E0,-3.259853E-1,-1.1743069E0,-2.1620633E-1,4.997389E-1,1.0942109E0,4.8705095E-1,-1.7643187E-2,-6.541643E-5,-1.433058E-2,-6.826234E-3,-8.22065E-3,-1.6244358E-3,3.5933708E-3,-1.6345367E-2,4.9625686E-3,-4.6684355E-3,1.3560296E-2,-2.6660154E-3,9.272845E-3,1.5017037E-2,8.131027E-3,-2.0220345E-3],"categories":[],"categories_nodes":[],"categories_segments":[],"categories_sizes":[],"default_left":[0,0,0,0,0,0,0,0,0,0,0,0,0,0,0,0,0,0,0,0,0,0,0,0,0,0,0,0,0,0,0],"id":25,"left_children":[1,3,5,7,9,11,13,15,17,19,21,23,25,27,29,-1,-1,-1,-1,-1,-1,-1,-1,-1,-1,-1,-1,-1,-1,-1,-1],"loss_changes":[7.620836E2,4.9787415E1,1.25033325E2,1.4501587E1,1.6878819E1,1.8672358E1,6.006549E1,4.204468E0,1.2163696E1,7.1208544E0,9.372726E0,2.2032864E1,2.0819233E1,1.4006165E1,4.7918854E1,0E0,0E0,0E0,0E0,0E0,0E0,0E0,0E0,0E0,0E0,0E0,0E0,0E0,0E0,0E0,0E0],"parents":[2147483647,0,0,1,1,2,2,3,3,4,4,5,5,6,6,7,7,8,8,9,9,10,10,11,11,12,12,13,13,14,14],"right_children":[2,4,6,8,10,12,14,16,18,20,22,24,26,28,30,-1,-1,-1,-1,-1,-1,-1,-1,-1,-1,-1,-1,-1,-1,-1,-1],"split_conditions":[1E0,9.36E1,1E0,1E0,7.1E1,9.13E1,8E0,1E0,1E0,1E0,-1.8375E2,2E0,2.8792E3,6.76E1,1E0,-1.7643187E-2,-6.541643E-5,-1.433058E-2,-6.826234E-3,-8.22065E-3,-1.6244358E-3,3.5933708E-3,-1.6345367E-2,4.9625686E-3,-4.6684355E-3,1.3560296E-2,-2.6660154E-3,9.272845E-3,1.5017037E-2,8.131027E-3,-2.0220345E-3],"split_indices":[33,7,15,34,4,7,4,41,32,34,42,4,8,7,12,0,0,0,0,0,0,0,0,0,0,0,0,0,0,0,0],"split_type":[0,0,0,0,0,0,0,0,0,0,0,0,0,0,0,0,0,0,0,0,0,0,0,0,0,0,0,0,0,0,0],"sum_hessian":[1.373935E3,4.6512598E2,9.0880914E2,3.300424E2,1.3508357E2,2.410566E2,6.677525E2,1.7147835E2,1.5856406E2,1.0510277E2,2.9980795E1,1.97469E2,4.358761E1,2.9265372E2,3.7509882E2,1.6936313E2,2.1152272E0,1.1077892E2,4.778513E1,3.508981E1,7.001296E1,3.3537786E0,2.6627016E1,4.2325108E1,1.5514388E2,2.2973892E1,2.0613714E1,1.0115575E2,1.9149797E2,2.8979355E2,8.530526E1],"tree_param":{"num_deleted":"0","num_feature":"43","num_nodes":"31","size_leaf_vector":"1"}},{"base_weights":[-6.826588E-4,-1.0308595E0,5.2625436E-1,-1.2393103E0,-5.1665044E-1,6.535458E-2,8.1869894E-1,-1.3578229E0,-8.3674765E-1,-3.223158E-1,-1.1635535E0,5.9188825E-1,-2.8086972E-1,1.1145874E0,4.6421963E-1,-1.6761644E-2,-1.1217891E-2,-8.482018E-4,-1.1677606E-2,-8.133252E-3,-1.6053818E-3,3.5592818E-3,-1.6203191E-2,6.1360496E-4,1.0238555E-2,-7.513469E-3,6.338861E-4,1.6643086E-2,1.2088937E-2,6.6685025E-3,-1.86858E-3],"categories":[],"categories_nodes":[],"categories_segments":[],"categories_sizes":[],"default_left":[0,0,0,0,0,0,0,0,0,0,0,0,0,0,0,0,0,0,0,0,0,0,0,0,0,0,0,0,0,0,0],"id":26,"left_children":[1,3,5,7,9,11,13,15,17,19,21,23,25,27,29,-1,-1,-1,-1,-1,-1,-1,-1,-1,-1,-1,-1,-1,-1,-1,-1],"loss_changes":[7.457457E2,4.9013214E1,1.2234509E2,1.4379486E1,1.6564754E1,6.473223E1,5.7611267E1,3.2142334E0,8.203434E0,6.9688063E0,9.209206E0,2.004158E1,2.4972292E1,6.986664E0,1.4970551E1,0E0,0E0,0E0,0E0,0E0,0E0,0E0,0E0,0E0,0E0,0E0,0E0,0E0,0E0,0E0,0E0],"parents":[2147483647,0,0,1,1,2,2,3,3,4,4,5,5,6,6,7,7,8,8,9,9,10,10,11,11,12,12,13,13,14,14],"right_children":[2,4,6,8,10,12,14,16,18,20,22,24,26,28,30,-1,-1,-1,-1,-1,-1,-1,-1,-1,-1,-1,-1,-1,-1,-1,-1],"split_conditions":[1E0,9.36E1,1E0,1E0,7.1E1,4E0,1.6E1,1E0,1.20605E3,1E0,-1.8375E2,1E0,1E0,2E0,5.5E1,-1.6761644E-2,-1.1217891E-2,-8.482018E-4,-1.1677606E-2,-8.133252E-3,-1.6053818E-3,3.5592818E-3,-1.6203191E-2,6.1360496E-4,1.0238555E-2,-7.513469E-3,6.338861E-4,1.6643086E-2,1.2088937E-2,6.6685025E-3,-1.86858E-3],"split_indices":[33,7,13,15,4,4,4,38,8,34,42,12,18,4,4,0,0,0,0,0,0,0,0,0,0,0,0,0,0,0,0],"split_type":[0,0,0,0,0,0,0,0,0,0,0,0,0,0,0,0,0,0,0,0,0,0,0,0,0,0,0,0,0,0,0],"sum_hessian":[1.3716942E3,4.6393256E2,9.077617E2,3.2896524E2,1.349673E2,3.5300064E2,5.5476105E2,2.5211444E2,7.685081E1,1.0506334E2,2.9903969E1,1.3987268E2,2.1312796E2,3.0104193E2,2.5371912E2,2.2531383E2,2.6800615E1,1.2267971E1,6.458283E1,3.505407E1,7.000927E1,3.3550136E0,2.6548956E1,4.653632E1,9.3336365E1,1.0408974E2,1.0903823E2,7.756013E1,2.234818E2,2.2061134E2,3.3107773E1],"tree_param":{"num_deleted":"0","num_feature":"43","num_nodes":"31","size_leaf_vector":"1"}},{"base_weights":[-6.973105E-4,-1.0213506E0,5.20629E-1,-1.2286917E0,-5.11106E-1,-8.489879E-2,7.3964965E-1,-1.4378463E0,-9.949102E-1,-3.186903E-1,-1.1529992E0,-2.1361554E-1,4.883823E-1,1.0745801E0,4.766673E-1,-1.7388651E-2,-0E0,-1.33978985E-2,-4.4010417E-3,-8.046956E-3,-1.5865541E-3,3.5255384E-3,-1.6063832E-2,4.8754723E-3,-4.604836E-3,1.3341424E-2,-2.6761696E-3,9.090424E-3,1.4763037E-2,7.959804E-3,-1.9717342E-3],"categories":[],"categories_nodes":[],"categories_segments":[],"categories_sizes":[],"default_left":[0,0,0,0,0,0,0,0,0,0,0,0,0,0,0,0,0,0,0,0,0,0,0,0,0,0,0,0,0,0,0],"id":27,"left_children":[1,3,5,7,9,11,13,15,17,19,21,23,25,27,29,-1,-1,-1,-1,-1,-1,-1,-1,-1,-1,-1,-1,-1,-1,-1,-1],"loss_changes":[7.297787E2,4.8252625E1,1.2051192E2,1.4399475E1,1.6259197E1,1.792439E1,5.80614E1,4.171631E0,1.2008255E1,6.820258E0,9.049801E0,2.1338322E1,2.0259611E1,1.3619598E1,4.582531E1,0E0,0E0,0E0,0E0,0E0,0E0,0E0,0E0,0E0,0E0,0E0,0E0,0E0,0E0,0E0,0E0],"parents":[2147483647,0,0,1,1,2,2,3,3,4,4,5,5,6,6,7,7,8,8,9,9,10,10,11,11,12,12,13,13,14,14],"right_children":[2,4,6,8,10,12,14,16,18,20,22,24,26,28,30,-1,-1,-1,-1,-1,-1,-1,-1,-1,-1,-1,-1,-1,-1,-1,-1],"split_conditions":[1E0,9.36E1,1E0,1E0,7.1E1,9.13E1,8E0,1E0,1E0,1E0,-1.8375E2,2E0,2.8792E3,6.76E1,1E0,-1.7388651E-2,-0E0,-1.33978985E-2,-4.4010417E-3,-8.046956E-3,-1.5865541E-3,3.5255384E-3,-1.6063832E-2,4.8754723E-3,-4.604836E-3,1.3341424E-2,-2.6761696E-3,9.090424E-3,1.4763037E-2,7.959804E-3,-1.9717342E-3],"split_indices":[33,7,15,34,4,7,4,41,40,34,42,4,8,7,12,0,0,0,0,0,0,0,0,0,0,0,0,0,0,0,0],"split_type":[0,0,0,0,0,0,0,0,0,0,0,0,0,0,0,0,0,0,0,0,0,0,0,0,0,0,0,0,0,0,0],"sum_hessian":[1.3694272E3,4.6273093E2,9.066963E2,3.278831E2,1.3484782E2,2.4087865E2,6.658176E2,1.7010513E2,1.5777797E2,1.0502313E2,2.9824682E1,1.9737111E2,4.3507526E1,2.9131915E2,3.744985E2,1.6799316E2,2.1119637E0,1.3049786E2,2.7280113E1,3.50176E1,7.000553E1,3.3562167E0,2.6468466E1,4.2302505E1,1.550686E2,2.2894905E1,2.0612621E1,1.0094095E2,1.903782E2,2.8920804E2,8.529048E1],"tree_param":{"num_deleted":"0","num_feature":"43","num_nodes":"31","size_leaf_vector":"1"}},{"base_weights":[-7.07281E-4,-1.0120133E0,5.150823E-1,-1.2182993E0,-5.056338E-1,-8.3861165E-2,7.319787E-1,-1.4270087E0,-9.854888E-1,-3.1510815E-1,-1.1426374E0,-2.1109363E-1,4.8326603E-1,9.538462E-1,3.4005228E-1,-1.7258458E-2,-0E0,-1.3957295E-2,-6.531421E-3,-7.961741E-3,-1.5679494E-3,3.4921395E-3,-1.5927188E-2,4.8198155E-3,-4.550886E-3,1.3215244E-2,-2.6454676E-3,1.3494042E-2,7.132905E-3,6.2227645E-3,-4.350938E-3],"categories":[],"categories_nodes":[],"categories_segments":[],"categories_sizes":[],"default_left":[0,0,0,0,0,0,0,0,0,0,0,0,0,0,0,0,0,0,0,0,0,0,0,0,0,0,0,0,0,0,0],"id":28,"left_children":[1,3,5,7,9,11,13,15,17,19,21,23,25,27,29,-1,-1,-1,-1,-1,-1,-1,-1,-1,-1,-1,-1,-1,-1,-1,-1],"loss_changes":[7.141983E2,4.751715E1,1.1790381E2,1.427066E1,1.5961781E1,1.7521248E1,5.7437653E1,4.1073303E0,1.1880676E1,6.6751165E0,8.89436E0,2.0843357E1,1.984773E1,2.5730774E1,3.1058035E1,0E0,0E0,0E0,0E0,0E0,0E0,0E0,0E0,0E0,0E0,0E0,0E0,0E0,0E0,0E0,0E0],"parents":[2147483647,0,0,1,1,2,2,3,3,4,4,5,5,6,6,7,7,8,8,9,9,10,10,11,11,12,12,13,13,14,14],"right_children":[2,4,6,8,10,12,14,16,18,20,22,24,26,28,30,-1,-1,-1,-1,-1,-1,-1,-1,-1,-1,-1,-1,-1,-1,-1,-1],"split_conditions":[1E0,9.36E1,1E0,1E0,7.1E1,9.13E1,1.7E1,1E0,1E0,1E0,-1.8375E2,2E0,2.8792E3,1E0,1E0,-1.7258458E-2,-0E0,-1.3957295E-2,-6.531421E-3,-7.961741E-3,-1.5679494E-3,3.4921395E-3,-1.5927188E-2,4.8198155E-3,-4.550886E-3,1.3215244E-2,-2.6454676E-3,1.3494042E-2,7.132905E-3,6.2227645E-3,-4.350938E-3],"split_indices":[33,7,15,34,4,7,4,41,32,34,42,4,8,12,12,0,0,0,0,0,0,0,0,0,0,0,0,0,0,0,0],"split_type":[0,0,0,0,0,0,0,0,0,0,0,0,0,0,0,0,0,0,0,0,0,0,0,0,0,0,0,0,0,0,0],"sum_hessian":[1.3670922E3,4.614897E2,9.056024E2,3.2676447E2,1.3472523E2,2.407969E2,6.6480554E2,1.6936206E2,1.5740239E2,1.0498219E2,2.974304E1,1.9733543E2,4.346147E1,4.234152E2,2.4139034E2,1.6725009E2,2.1119637E0,1.0980671E2,4.7595684E1,3.4980442E1,7.0001755E1,3.3573883E0,2.6385653E1,4.229133E1,1.550441E2,2.2847172E1,2.0614298E1,2.8218262E2,1.4123257E2,1.9241035E2,4.8979973E1],"tree_param":{"num_deleted":"0","num_feature":"43","num_nodes":"31","size_leaf_vector":"1"}},{"base_weights":[-7.244604E-4,-1.0028337E0,5.0959486E-1,-1.2081062E0,-5.002319E-1,-8.28371E-2,7.243888E-1,-1.3266146E0,-8.075134E-1,-3.1156853E-1,-1.1324613E0,-2.0860328E-1,4.7822046E-1,1.0556643E0,4.650388E-1,-1.6389992E-2,-1.0860563E-2,-5.9421355E-4,-1.1321034E-2,-7.8775855E-3,-1.5495623E-3,3.4590787E-3,-1.5793167E-2,4.764833E-3,-4.497607E-3,1.3091096E-2,-2.6151272E-3,8.917004E-3,1.4517665E-2,7.7797924E-3,-1.9550591E-3],"categories":[],"categories_nodes":[],"categories_segments":[],"categories_sizes":[],"default_left":[0,0,0,0,0,0,0,0,0,0,0,0,0,0,0,0,0,0,0,0,0,0,0,0,0,0,0,0,0,0,0],"id":29,"left_children":[1,3,5,7,9,11,13,15,17,19,21,23,25,27,29,-1,-1,-1,-1,-1,-1,-1,-1,-1,-1,-1,-1,-1,-1,-1,-1],"loss_changes":[6.9898425E2,4.680365E1,1.1535132E2,1.4214325E1,1.5672184E1,1.7127615E1,5.6467865E1,3.2338867E0,8.051559E0,6.5332966E0,8.742722E0,2.0360048E1,1.9445707E1,1.3235413E1,4.4004387E1,0E0,0E0,0E0,0E0,0E0,0E0,0E0,0E0,0E0,0E0,0E0,0E0,0E0,0E0,0E0,0E0],"parents":[2147483647,0,0,1,1,2,2,3,3,4,4,5,5,6,6,7,7,8,8,9,9,10,10,11,11,12,12,13,13,14,14],"right_children":[2,4,6,8,10,12,14,16,18,20,22,24,26,28,30,-1,-1,-1,-1,-1,-1,-1,-1,-1,-1,-1,-1,-1,-1,-1,-1],"split_conditions":[1E0,9.36E1,1E0,1E0,7.1E1,9.13E1,8E0,1E0,1.20605E3,1E0,-1.8375E2,2E0,2.8792E3,6.76E1,1E0,-1.6389992E-2,-1.0860563E-2,-5.9421355E-4,-1.1321034E-2,-7.8775855E-3,-1.5495623E-3,3.4590787E-3,-1.5793167E-2,4.764833E-3,-4.497607E-3,1.3091096E-2,-2.6151272E-3,8.917004E-3,1.4517665E-2,7.7797924E-3,-1.9550591E-3],"split_indices":[33,7,15,15,4,7,4,38,8,34,42,4,8,7,12,0,0,0,0,0,0,0,0,0,0,0,0,0,0,0,0],"split_type":[0,0,0,0,0,0,0,0,0,0,0,0,0,0,0,0,0,0,0,0,0,0,0,0,0,0,0,0,0,0,0],"sum_hessian":[1.3647179E3,4.6022186E2,9.044961E2,3.2562216E2,1.345997E2,2.4071199E2,6.637841E2,2.4930133E2,7.632083E1,1.0494055E2,2.9659145E1,1.9729807E2,4.3413925E1,2.8995157E2,3.7383252E2,2.2271349E2,2.6587833E1,1.2226235E1,6.40946E1,3.494262E1,6.999793E1,3.3585293E0,2.6300617E1,4.2279785E1,1.5501828E2,2.2798042E1,2.0615883E1,1.00731445E2,1.8922012E2,2.8855334E2,8.527918E1],"tree_param":{"num_deleted":"0","num_feature":"43","num_nodes":"31","size_leaf_vector":"1"}},{"base_weights":[-7.374326E-4,-9.9375683E-1,5.041926E-1,-1.1980215E0,-4.9489912E-1,6.100487E-2,7.867904E-1,-1.4069672E0,-9.6578234E-1,-3.080708E-1,-1.1224648E0,5.702201E-1,-2.7313057E-1,1.0506723E0,4.0757307E-1,-1.7019834E-2,-0E0,-1.3714828E-2,-6.3330624E-3,-7.794467E-3,-1.5313912E-3,3.4263518E-3,-1.5661675E-2,5.2338396E-4,9.908955E-3,-7.3239543E-3,6.3080736E-4,1.6167723E-2,1.1369352E-2,1.7194739E-3,8.287158E-3],"categories":[],"categories_nodes":[],"categories_segments":[],"categories_sizes":[],"default_left":[0,0,0,0,0,0,0,0,0,0,0,0,0,0,0,0,0,0,0,0,0,0,0,0,0,0,0,0,0,0,0],"id":30,"left_children":[1,3,5,7,9,11,13,15,17,19,21,23,25,27,29,-1,-1,-1,-1,-1,-1,-1,-1,-1,-1,-1,-1,-1,-1,-1,-1],"loss_changes":[6.841216E2,4.610077E1,1.131297E2,1.4190186E1,1.5390099E1,6.030857E1,5.4659363E1,4.078888E0,1.1718338E1,6.394696E0,8.594761E0,1.902877E1,2.3782803E1,8.210571E0,1.7029434E1,0E0,0E0,0E0,0E0,0E0,0E0,0E0,0E0,0E0,0E0,0E0,0E0,0E0,0E0,0E0,0E0],"parents":[2147483647,0,0,1,1,2,2,3,3,4,4,5,5,6,6,7,7,8,8,9,9,10,10,11,11,12,12,13,13,14,14],"right_children":[2,4,6,8,10,12,14,16,18,20,22,24,26,28,30,-1,-1,-1,-1,-1,-1,-1,-1,-1,-1,-1,-1,-1,-1,-1,-1],"split_conditions":[1E0,9.36E1,1E0,1E0,7.1E1,4E0,1.58275E3,1E0,1E0,1E0,-1.8375E2,1E0,1E0,2E0,1E0,-1.7019834E-2,-0E0,-1.3714828E-2,-6.3330624E-3,-7.794467E-3,-1.5313912E-3,3.4263518E-3,-1.5661675E-2,5.2338396E-4,9.908955E-3,-7.3239543E-3,6.3080736E-4,1.6167723E-2,1.1369352E-2,1.7194739E-3,8.287158E-3],"split_indices":[33,7,13,34,4,4,8,41,32,34,42,12,18,4,40,0,0,0,0,0,0,0,0,0,0,0,0,0,0,0,0],"split_type":[0,0,0,0,0,0,0,0,0,0,0,0,0,0,0,0,0,0,0,0,0,0,0,0,0,0,0,0,0,0,0],"sum_hessian":[1.3623082E3,4.5895056E2,9.0335767E2,3.2447925E2,1.3447133E2,3.5235443E2,5.5100323E2,1.6790875E2,1.5657048E2,1.0489823E2,2.95731E1,1.3944528E2,2.1290913E2,3.2370627E2,2.2729697E2,1.6580023E2,2.108519E0,1.09112755E2,4.745773E1,3.4904167E1,6.9994064E1,3.3596404E0,2.6213459E1,4.6511467E1,9.2933815E1,1.03954544E2,1.089546E2,7.653057E1,2.4717569E2,1.1923727E2,1.080597E2],"tree_param":{"num_deleted":"0","num_feature":"43","num_nodes":"31","size_leaf_vector":"1"}},{"base_weights":[-7.439744E-4,-9.848521E-1,4.988572E-1,-1.1881671E0,-4.89634E-1,-8.28127E-2,7.102475E-1,-1.3967727E0,-9.568076E-1,-3.0461454E-1,-1.112642E0,-2.0578794E-1,4.6657854E-1,9.281965E-1,3.2699394E-1,-1.6897466E-2,-0E0,-1.3794351E-2,-6.635293E-3,-7.7123675E-3,-1.5134343E-3,3.393956E-3,-1.5532626E-2,4.6818913E-3,-4.431741E-3,1.28887715E-2,-2.649672E-3,1.3148177E-2,6.9310376E-3,6.0043526E-3,-4.2489427E-3],"categories":[],"categories_nodes":[],"categories_segments":[],"categories_sizes":[],"default_left":[0,0,0,0,0,0,0,0,0,0,0,0,0,0,0,0,0,0,0,0,0,0,0,0,0,0,0,0,0,0,0],"id":31,"left_children":[1,3,5,7,9,11,13,15,17,19,21,23,25,27,29,-1,-1,-1,-1,-1,-1,-1,-1,-1,-1,-1,-1,-1,-1,-1,-1],"loss_changes":[6.696221E2,4.5423187E1,1.111826E2,1.4072144E1,1.5115219E1,1.6386404E1,5.4921875E1,4.019165E0,1.1656509E1,6.259239E0,8.450352E0,1.9700632E1,1.9004261E1,2.4471802E1,2.9184332E1,0E0,0E0,0E0,0E0,0E0,0E0,0E0,0E0,0E0,0E0,0E0,0E0,0E0,0E0,0E0,0E0],"parents":[2147483647,0,0,1,1,2,2,3,3,4,4,5,5,6,6,7,7,8,8,9,9,10,10,11,11,12,12,13,13,14,14],"right_children":[2,4,6,8,10,12,14,16,18,20,22,24,26,28,30,-1,-1,-1,-1,-1,-1,-1,-1,-1,-1,-1,-1,-1,-1,-1,-1],"split_conditions":[1E0,9.36E1,1E0,1E0,7.1E1,9.13E1,1.7E1,1E0,1E0,1E0,-1.8375E2,2E0,2.8792E3,1E0,1E0,-1.6897466E-2,-0E0,-1.3794351E-2,-6.635293E-3,-7.7123675E-3,-1.5134343E-3,3.393956E-3,-1.5532626E-2,4.6818913E-3,-4.431741E-3,1.28887715E-2,-2.649672E-3,1.3148177E-2,6.9310376E-3,6.0043526E-3,-4.2489427E-3],"split_indices":[33,7,15,34,4,7,4,41,15,34,42,4,8,12,12,0,0,0,0,0,0,0,0,0,0,0,0,0,0,0,0],"split_type":[0,0,0,0,0,0,0,0,0,0,0,0,0,0,0,0,0,0,0,0,0,0,0,0,0,0,0,0,0,0,0],"sum_hessian":[1.3598561E3,4.5763928E2,9.0221674E2,3.23299E2,1.3434029E2,2.4051793E2,6.616988E2,1.67126E2,1.5617299E2,1.0485529E2,2.9484997E1,1.9719202E2,4.3325905E1,4.2074045E2,2.4095837E2,1.6501749E2,2.108519E0,1.0321733E2,5.2955658E1,3.486512E1,6.999017E1,3.3607218E0,2.6124275E1,4.2255062E1,1.5493695E2,2.271178E1,2.0614122E1,2.7984348E2,1.4089697E2,1.9200104E2,4.895734E1],"tree_param":{"num_deleted":"0","num_feature":"43","num_nodes":"31","size_leaf_vector":"1"}},{"base_weights":[-7.608017E-4,-9.7607154E-1,4.9357802E-1,-1.1784612E0,-4.844353E-1,-9.0555534E-2,7.001785E-1,-1.3867862E0,-9.479331E-1,-3.011991E-1,-1.1029872E0,-3.1586704E-1,3.6018828E-1,9.736544E-1,4.0909356E-1,-1.6777622E-2,-0E0,-1.2823354E-2,-3.9785984E-3,-7.631264E-3,-1.4956906E-3,3.3618857E-3,-1.5405939E-2,-7.0594717E-4,-1.3452482E-2,1.0434992E-2,1.2986248E-4,9.4392225E-3,1.4860382E-2,6.883892E-3,-1.6986014E-3],"categories":[],"categories_nodes":[],"categories_segments":[],"categories_sizes":[],"default_left":[0,0,0,0,0,0,0,0,0,0,0,0,0,0,0,0,0,0,0,0,0,0,0,0,0,0,0,0,0,0,0],"id":32,"left_children":[1,3,5,7,9,11,13,15,17,19,21,23,25,27,29,-1,-1,-1,-1,-1,-1,-1,-1,-1,-1,-1,-1,-1,-1,-1,-1],"loss_changes":[6.5544446E2,4.4760895E1,1.08987885E2,1.3961395E1,1.4847258E1,2.41215E1,5.2524323E1,3.96109E0,1.1576706E1,6.1268263E0,8.309357E0,3.274269E1,1.4080543E1,1.5809265E1,3.0036419E1,0E0,0E0,0E0,0E0,0E0,0E0,0E0,0E0,0E0,0E0,0E0,0E0,0E0,0E0,0E0,0E0],"parents":[2147483647,0,0,1,1,2,2,3,3,4,4,5,5,6,6,7,7,8,8,9,9,10,10,11,11,12,12,13,13,14,14],"right_children":[2,4,6,8,10,12,14,16,18,20,22,24,26,28,30,-1,-1,-1,-1,-1,-1,-1,-1,-1,-1,-1,-1,-1,-1,-1,-1],"split_conditions":[1E0,9.36E1,1E0,1E0,7.1E1,7.95E1,1.1E1,1E0,1E0,1E0,-1.8375E2,1.8E1,1.6694E3,7.615E1,1E0,-1.6777622E-2,-0E0,-1.2823354E-2,-3.9785984E-3,-7.631264E-3,-1.4956906E-3,3.3618857E-3,-1.5405939E-2,-7.0594717E-4,-1.3452482E-2,1.0434992E-2,1.2986248E-4,9.4392225E-3,1.4860382E-2,6.883892E-3,-1.6986014E-3],"split_indices":[33,7,24,34,4,7,4,41,40,34,42,4,8,7,12,0,0,0,0,0,0,0,0,0,0,0,0,0,0,0,0],"split_type":[0,0,0,0,0,0,0,0,0,0,0,0,0,0,0,0,0,0,0,0,0,0,0,0,0,0,0,0,0,0,0],"sum_hessian":[1.3573628E3,4.5631195E2,9.010509E2,3.221053E2,1.3420668E2,2.3543988E2,6.65611E2,1.6633087E2,1.557744E2,1.04811745E2,2.939494E1,1.5732619E2,7.811369E1,3.41794E2,3.23817E2,1.6422235E2,2.108519E0,1.2864977E2,2.7124641E1,3.4825512E1,6.998624E1,3.3617747E0,2.6033165E1,1.2036831E2,3.695788E1,3.0910585E1,4.7203106E1,2.0600421E2,1.3578981E2,2.4862212E2,7.519487E1],"tree_param":{"num_deleted":"0","num_feature":"43","num_nodes":"31","size_leaf_vector":"1"}},{"base_weights":[-7.7981246E-4,-9.674149E-1,4.883225E-1,-1.1689076E0,-4.7930142E-1,-8.336261E-2,6.965846E-1,-1.2872772E0,-7.716744E-1,-2.978238E-1,-1.0934945E0,-2.038171E-1,4.5560604E-1,1.0206126E0,4.4444254E-1,-1.5925014E-2,-1.0382419E-2,-2.7051728E-4,-1.088735E-2,-7.551138E-3,-1.4781548E-3,3.3301397E-3,-1.5281532E-2,4.615486E-3,-4.38334E-3,1.2693243E-2,-2.6747475E-3,9.917351E-3,1.5224714E-2,7.4514686E-3,-1.8923593E-3],"categories":[],"categories_nodes":[],"categories_segments":[],"categories_sizes":[],"default_left":[0,0,0,0,0,0,0,0,0,0,0,0,0,0,0,0,0,0,0,0,0,0,0,0,0,0,0,0,0,0,0],"id":33,"left_children":[1,3,5,7,9,11,13,15,17,19,21,23,25,27,29,-1,-1,-1,-1,-1,-1,-1,-1,-1,-1,-1,-1,-1,-1,-1,-1],"loss_changes":[6.4156726E2,4.4114166E1,1.0738667E2,1.3929596E1,1.4585949E1,1.5734189E1,5.3367218E1,3.3062744E0,7.8876343E0,5.997386E0,8.171654E0,1.9198034E1,1.8560356E1,1.265213E1,4.0488792E1,0E0,0E0,0E0,0E0,0E0,0E0,0E0,0E0,0E0,0E0,0E0,0E0,0E0,0E0,0E0,0E0],"parents":[2147483647,0,0,1,1,2,2,3,3,4,4,5,5,6,6,7,7,8,8,9,9,10,10,11,11,12,12,13,13,14,14],"right_children":[2,4,6,8,10,12,14,16,18,20,22,24,26,28,30,-1,-1,-1,-1,-1,-1,-1,-1,-1,-1,-1,-1,-1,-1,-1,-1],"split_conditions":[1E0,9.36E1,1E0,1E0,7.1E1,9.13E1,8E0,1E0,1.20605E3,1E0,-1.8375E2,2E0,2.8792E3,7.5E1,1E0,-1.5925014E-2,-1.0382419E-2,-2.7051728E-4,-1.088735E-2,-7.551138E-3,-1.4781548E-3,3.3301397E-3,-1.5281532E-2,4.615486E-3,-4.38334E-3,1.2693243E-2,-2.6747475E-3,9.917351E-3,1.5224714E-2,7.4514686E-3,-1.8923593E-3],"split_indices":[33,7,15,15,4,7,4,38,8,34,42,4,8,7,12,0,0,0,0,0,0,0,0,0,0,0,0,0,0,0,0],"split_type":[0,0,0,0,0,0,0,0,0,0,0,0,0,0,0,0,0,0,0,0,0,0,0,0,0,0,0,0,0,0,0],"sum_hessian":[1.3548964E3,4.549638E2,8.999325E2,3.2089316E2,1.3407065E2,2.4032841E2,6.596041E2,2.4529759E2,7.559557E1,1.0476764E2,2.9303009E1,1.970933E2,4.32351E1,2.871412E2,3.724629E2,2.1902454E2,2.6273067E1,1.2168728E1,6.3426846E1,3.478537E1,6.998227E1,3.3627996E0,2.5940208E1,4.223281E1,1.548605E2,2.262262E1,2.0612478E1,1.6660226E2,1.20538956E2,2.8722076E2,8.524213E1],"tree_param":{"num_deleted":"0","num_feature":"43","num_nodes":"31","size_leaf_vector":"1"}},{"base_weights":[-7.90112E-4,-9.5885515E-1,4.831832E-1,-1.159456E0,-4.7423127E-1,-9.186506E-2,6.8697226E-1,-1.3683056E0,-9.292533E-1,-2.9448813E-1,-1.0841591E0,-3.1213188E-1,3.495181E-1,9.567477E-1,4.007462E-1,-1.6557943E-2,-0E0,-1.3271861E-2,-5.9516476E-3,-7.4719754E-3,-1.460825E-3,3.298712E-3,-1.51593285E-2,-7.050969E-4,-1.3278186E-2,1.0240287E-2,6.379406E-5,9.2625E-3,1.4631572E-2,6.7410963E-3,-1.6464067E-3],"categories":[],"categories_nodes":[],"categories_segments":[],"categories_sizes":[],"default_left":[0,0,0,0,0,0,0,0,0,0,0,0,0,0,0,0,0,0,0,0,0,0,0,0,0,0,0,0,0,0,0],"id":34,"left_children":[1,3,5,7,9,11,13,15,17,19,21,23,25,27,29,-1,-1,-1,-1,-1,-1,-1,-1,-1,-1,-1,-1,-1,-1,-1,-1],"loss_changes":[6.2803186E2,4.3477325E1,1.05563354E2,1.3908936E1,1.4331041E1,2.3066444E1,5.079193E1,3.9384766E0,1.1480331E1,5.8708467E0,8.03714E0,3.1821686E1,1.3695305E1,1.543335E1,2.8670692E1,0E0,0E0,0E0,0E0,0E0,0E0,0E0,0E0,0E0,0E0,0E0,0E0,0E0,0E0,0E0,0E0],"parents":[2147483647,0,0,1,1,2,2,3,3,4,4,5,5,6,6,7,7,8,8,9,9,10,10,11,11,12,12,13,13,14,14],"right_children":[2,4,6,8,10,12,14,16,18,20,22,24,26,28,30,-1,-1,-1,-1,-1,-1,-1,-1,-1,-1,-1,-1,-1,-1,-1,-1],"split_conditions":[1E0,9.36E1,1E0,1E0,7.1E1,7.95E1,1.1E1,1E0,1E0,1E0,-1.8375E2,1.8E1,1.6694E3,7.615E1,1E0,-1.6557943E-2,-0E0,-1.3271861E-2,-5.9516476E-3,-7.4719754E-3,-1.460825E-3,3.298712E-3,-1.51593285E-2,-7.050969E-4,-1.3278186E-2,1.0240287E-2,6.379406E-5,9.2625E-3,1.4631572E-2,6.7410963E-3,-1.6464067E-3],"split_indices":[33,7,24,34,4,7,4,41,32,34,42,4,8,7,12,0,0,0,0,0,0,0,0,0,0,0,0,0,0,0,0],"split_type":[0,0,0,0,0,0,0,0,0,0,0,0,0,0,0,0,0,0,0,0,0,0,0,0,0,0,0,0,0,0,0],"sum_hessian":[1.352352E3,4.536153E2,8.987367E2,3.19683E2,1.339323E2,2.351728E2,6.635639E2,1.6478801E2,1.54895E2,1.04723E2,2.9209303E1,1.5723393E2,7.793888E1,3.402068E2,3.233571E2,1.6268309E2,2.1049228E0,1.07726685E2,4.716832E1,3.4744717E1,6.997828E1,3.3637967E0,2.5845505E1,1.2032583E2,3.69081E1,3.077229E1,4.716659E1,2.0531267E2,1.3489412E2,2.4818245E2,7.5174644E1],"tree_param":{"num_deleted":"0","num_feature":"43","num_nodes":"31","size_leaf_vector":"1"}},{"base_weights":[-8.105776E-4,-9.504539E-1,4.7805807E-1,-1.1502179E0,-4.6922338E-1,-8.3867155E-2,6.8327016E-1,-1.358879E0,-9.207668E-1,-2.9119125E-1,-1.0749758E0,-2.018557E-1,4.449167E-1,1.0032555E0,4.351057E-1,-1.6444916E-2,-0E0,-1.3351525E-2,-6.262778E-3,-1.6711132E-3,-7.978449E-3,3.2675983E-3,-1.5039258E-2,4.550303E-3,-4.3354467E-3,1.2503017E-2,-2.698181E-3,8.395453E-3,1.385969E-2,7.2985236E-3,-1.8503768E-3],"categories":[],"categories_nodes":[],"categories_segments":[],"categories_sizes":[],"default_left":[0,0,0,0,0,0,0,0,0,0,0,0,0,0,0,0,0,0,0,0,0,0,0,0,0,0,0,0,0,0,0],"id":35,"left_children":[1,3,5,7,9,11,13,15,17,19,21,23,25,27,29,-1,-1,-1,-1,-1,-1,-1,-1,-1,-1,-1,-1,-1,-1,-1,-1],"loss_changes":[6.147918E2,4.286322E1,1.03738434E2,1.38072815E1,1.4082306E1,1.5108965E1,5.1702087E1,3.8842773E0,1.1371933E1,5.845108E0,7.905693E0,1.8709118E1,1.812962E1,1.24964905E1,3.879104E1,0E0,0E0,0E0,0E0,0E0,0E0,0E0,0E0,0E0,0E0,0E0,0E0,0E0,0E0,0E0,0E0],"parents":[2147483647,0,0,1,1,2,2,3,3,4,4,5,5,6,6,7,7,8,8,9,9,10,10,11,11,12,12,13,13,14,14],"right_children":[2,4,6,8,10,12,14,16,18,20,22,24,26,28,30,-1,-1,-1,-1,-1,-1,-1,-1,-1,-1,-1,-1,-1,-1,-1,-1],"split_conditions":[1E0,9.36E1,1E0,1E0,7.1E1,9.13E1,8E0,1E0,1E0,1E0,-1.8375E2,2E0,2.8792E3,6.76E1,1E0,-1.6444916E-2,-0E0,-1.3351525E-2,-6.262778E-3,-1.6711132E-3,-7.978449E-3,3.2675983E-3,-1.5039258E-2,4.550303E-3,-4.3354467E-3,1.2503017E-2,-2.698181E-3,8.395453E-3,1.385969E-2,7.2985236E-3,-1.8503768E-3],"split_indices":[33,7,15,34,4,7,4,41,15,3,42,4,8,7,12,0,0,0,0,0,0,0,0,0,0,0,0,0,0,0,0],"split_type":[0,0,0,0,0,0,0,0,0,0,0,0,0,0,0,0,0,0,0,0,0,0,0,0,0,0,0,0,0,0,0],"sum_hessian":[1.3498141E3,4.5222958E2,8.9758453E2,3.1843784E2,1.3379175E2,2.4013075E2,6.574538E2,1.639608E2,1.5447702E2,1.0467784E2,2.9113901E1,1.9698962E2,4.314113E1,2.856611E2,3.7179272E2,1.6185588E2,2.1049228E0,1.0188124E2,5.2595783E1,7.584306E1,2.8834784E1,3.3647666E0,2.5749134E1,4.220989E1,1.5477972E2,2.2530342E1,2.0610786E1,9.9989E1,1.856721E2,2.86573E2,8.521972E1],"tree_param":{"num_deleted":"0","num_feature":"43","num_nodes":"31","size_leaf_vector":"1"}},{"base_weights":[-8.2172843E-4,-9.421413E-1,4.7304943E-1,-1.1411093E0,-4.6424478E-1,-9.301248E-2,6.7406976E-1,-1.3496343E0,-9.12369E-1,-2.879105E-1,-1.0659397E0,-3.0838892E-1,3.3927405E-1,9.402606E-1,3.9259675E-1,-1.6334098E-2,-0E0,-1.3064167E-2,-5.7848124E-3,-9.731108E-3,-2.1451416E-3,3.2367967E-3,-1.4921248E-2,-7.031903E-4,-1.310765E-2,1.0054433E-2,-0E0,9.084334E-3,1.4416453E-2,6.601681E-3,-1.5953432E-3],"categories":[],"categories_nodes":[],"categories_segments":[],"categories_sizes":[],"default_left":[0,0,0,0,0,0,0,0,0,0,0,0,0,0,0,0,0,0,0,0,0,0,0,0,0,0,0,0,0,0,0],"id":36,"left_children":[1,3,5,7,9,11,13,15,17,19,21,23,25,27,29,-1,-1,-1,-1,-1,-1,-1,-1,-1,-1,-1,-1,-1,-1,-1,-1],"loss_changes":[6.018724E2,4.2268463E1,1.0223157E2,1.3711731E1,1.3840666E1,2.2064838E1,4.9127197E1,3.8315125E0,1.1326767E1,5.7793818E0,7.777218E0,3.0936167E1,1.3333842E1,1.5152618E1,2.7367226E1,0E0,0E0,0E0,0E0,0E0,0E0,0E0,0E0,0E0,0E0,0E0,0E0,0E0,0E0,0E0,0E0],"parents":[2147483647,0,0,1,1,2,2,3,3,4,4,5,5,6,6,7,7,8,8,9,9,10,10,11,11,12,12,13,13,14,14],"right_children":[2,4,6,8,10,12,14,16,18,20,22,24,26,28,30,-1,-1,-1,-1,-1,-1,-1,-1,-1,-1,-1,-1,-1,-1,-1,-1],"split_conditions":[1E0,9.36E1,1E0,1E0,7.1E1,7.95E1,1.1E1,1E0,1E0,1E0,-1.8375E2,1.8E1,1.6694E3,7.615E1,1E0,-1.6334098E-2,-0E0,-1.3064167E-2,-5.7848124E-3,-9.731108E-3,-2.1451416E-3,3.2367967E-3,-1.4921248E-2,-7.031903E-4,-1.310765E-2,1.0054433E-2,-0E0,9.084334E-3,1.4416453E-2,6.601681E-3,-1.5953432E-3],"split_indices":[33,7,24,34,4,7,4,41,32,40,42,4,8,7,12,0,0,0,0,0,0,0,0,0,0,0,0,0,0,0,0],"split_type":[0,0,0,0,0,0,0,0,0,0,0,0,0,0,0,0,0,0,0,0,0,0,0,0,0,0,0,0,0,0,0],"sum_hessian":[1.3471877E3,4.5084268E2,8.9634503E2,3.1718262E2,1.3366008E2,2.3490094E2,6.614441E2,1.6312367E2,1.5405894E2,1.0464319E2,2.9016893E1,1.5713678E2,7.776417E1,3.385592E2,3.2288492E2,1.6101875E2,2.1049228E0,1.0702468E2,4.703426E1,1.6588028E1,8.805516E1,3.3657103E0,2.5651182E1,1.2028271E2,3.6854065E1,3.0634212E1,4.712995E1,2.0455919E2,1.34E2,2.4773083E2,7.515407E1],"tree_param":{"num_deleted":"0","num_feature":"43","num_nodes":"31","size_leaf_vector":"1"}},{"base_weights":[-8.440384E-4,-9.339544E-1,4.680495E-1,-1.1321523E0,-4.5934254E-1,-8.432831E-2,6.70289E-1,-1.2506038E0,-7.3775536E-1,-3.137302E-1,-1.1813625E0,-2.794721E-1,2.2571693E-1,8.809483E-1,3.0329823E-1,-1.5493077E-2,-9.926982E-3,-0E0,-1.0478039E-2,-1.0399751E-2,-2.3698716E-3,4.741729E-4,-1.6407894E-2,4.536499E-3,-5.7141483E-3,4.9456046E-3,-4.623455E-3,1.25350235E-2,6.5110107E-3,5.5919765E-3,-4.0026917E-3],"categories":[],"categories_nodes":[],"categories_segments":[],"categories_sizes":[],"default_left":[0,0,0,0,0,0,0,0,0,0,0,0,0,0,0,0,0,0,0,0,0,0,0,0,0,0,0,0,0,0,0],"id":37,"left_children":[1,3,5,7,9,11,13,15,17,19,21,23,25,27,29,-1,-1,-1,-1,-1,-1,-1,-1,-1,-1,-1,-1,-1,-1,-1,-1],"loss_changes":[5.892246E2,4.168686E1,1.0022972E2,1.36770935E1,1.3618481E1,1.4645444E1,5.0344208E1,3.3834534E0,7.7309265E0,7.0028315E0,5.368891E0,1.964883E1,1.093363E1,2.2780151E1,2.5510283E1,0E0,0E0,0E0,0E0,0E0,0E0,0E0,0E0,0E0,0E0,0E0,0E0,0E0,0E0,0E0,0E0],"parents":[2147483647,0,0,1,1,2,2,3,3,4,4,5,5,6,6,7,7,8,8,9,9,10,10,11,11,12,12,13,13,14,14],"right_children":[2,4,6,8,10,12,14,16,18,20,22,24,26,28,30,-1,-1,-1,-1,-1,-1,-1,-1,-1,-1,-1,-1,-1,-1,-1,-1],"split_conditions":[1E0,9.36E1,1E0,1E0,7.2E1,1E0,1.7E1,1E0,1.20605E3,1E0,-1.8375E2,2.49E1,3E1,1E0,1E0,-1.5493077E-2,-9.926982E-3,-0E0,-1.0478039E-2,-1.0399751E-2,-2.3698716E-3,4.741729E-4,-1.6407894E-2,4.536499E-3,-5.7141483E-3,4.9456046E-3,-4.623455E-3,1.25350235E-2,6.5110107E-3,5.5919765E-3,-4.0026917E-3],"split_indices":[33,7,15,15,4,18,4,38,8,40,42,8,4,12,12,0,0,0,0,0,0,0,0,0,0,0,0,0,0,0,0],"split_type":[0,0,0,0,0,0,0,0,0,0,0,0,0,0,0,0,0,0,0,0,0,0,0,0,0,0,0,0,0,0,0],"sum_hessian":[1.3445995E3,4.4943686E2,8.951627E2,3.159099E2,1.3352693E2,2.3992548E2,6.552372E2,2.4107405E2,7.483586E1,1.1243025E2,2.1096676E1,1.4751228E2,9.24132E1,4.152147E2,2.4002254E2,2.1513458E2,2.5939476E1,1.2109332E1,6.2726532E1,1.8026917E1,9.4403336E1,2.8994112E0,1.8197266E1,3.3844788E1,1.1366749E2,7.107404E1,2.1339159E1,2.7511667E2,1.40098E2,1.9113023E2,4.8892303E1],"tree_param":{"num_deleted":"0","num_feature":"43","num_nodes":"31","size_leaf_vector":"1"}},{"base_weights":[-8.7412616E-4,-9.258396E-1,4.6311268E-1,-1.1232553E0,-4.545257E-1,-9.380407E-2,6.61304E-1,-1.3325175E0,-8.9466786E-1,-2.8118578E-1,-1.0493685E0,-3.0478778E-1,3.302979E-1,9.2395306E-1,3.8451618E-1,-1.6130976E-2,-0E0,-1.21806115E-2,-3.4663875E-3,-7.2772847E-3,-1.3264947E-3,3.2055515E-3,-1.4709318E-2,-7.053435E-4,-1.2932806E-2,9.868582E-3,-0E0,8.908234E-3,1.4204408E-2,6.4694434E-3,-1.564052E-3],"categories":[],"categories_nodes":[],"categories_segments":[],"categories_sizes":[],"default_left":[0,0,0,0,0,0,0,0,0,0,0,0,0,0,0,0,0,0,0,0,0,0,0,0,0,0,0,0,0,0,0],"id":38,"left_children":[1,3,5,7,9,11,13,15,17,19,21,23,25,27,29,-1,-1,-1,-1,-1,-1,-1,-1,-1,-1,-1,-1,-1,-1,-1,-1],"loss_changes":[5.7685223E2,4.1107574E1,9.890199E1,1.3676697E1,1.3425106E1,2.118233E1,4.7513428E1,3.8136597E0,1.1195091E1,5.7481165E0,7.5704765E0,3.0018887E1,1.2909028E1,1.4879913E1,2.627224E1,0E0,0E0,0E0,0E0,0E0,0E0,0E0,0E0,0E0,0E0,0E0,0E0,0E0,0E0,0E0,0E0],"parents":[2147483647,0,0,1,1,2,2,3,3,4,4,5,5,6,6,7,7,8,8,9,9,10,10,11,11,12,12,13,13,14,14],"right_children":[2,4,6,8,10,12,14,16,18,20,22,24,26,28,30,-1,-1,-1,-1,-1,-1,-1,-1,-1,-1,-1,-1,-1,-1,-1,-1],"split_conditions":[1E0,9.36E1,1E0,1E0,7.1E1,7.95E1,1.1E1,1E0,1E0,1E0,-1.8375E2,1.8E1,1.6694E3,7.615E1,1E0,-1.6130976E-2,-0E0,-1.21806115E-2,-3.4663875E-3,-7.2772847E-3,-1.3264947E-3,3.2055515E-3,-1.4709318E-2,-7.053435E-4,-1.2932806E-2,9.868582E-3,-0E0,8.908234E-3,1.4204408E-2,6.4694434E-3,-1.564052E-3],"split_indices":[33,7,24,34,4,7,4,41,40,34,42,4,8,7,12,0,0,0,0,0,0,0,0,0,0,0,0,0,0,0,0],"split_type":[0,0,0,0,0,0,0,0,0,0,0,0,0,0,0,0,0,0,0,0,0,0,0,0,0,0,0,0,0,0,0],"sum_hessian":[1.3419952E3,4.4804242E2,8.939529E2,3.146465E2,1.333959E2,2.3463503E2,6.593179E2,1.6150986E2,1.5313666E2,1.0457002E2,2.882589E1,1.5703668E2,7.759834E1,3.369082E2,3.2240967E2,1.5940866E2,2.10119E0,1.2622919E2,2.6907461E1,3.464033E1,6.992969E1,3.3666525E0,2.5459238E1,1.202432E2,3.6793476E1,3.0493715E1,4.710463E1,2.0382526E2,1.3308293E2,2.4727159E2,7.513806E1],"tree_param":{"num_deleted":"0","num_feature":"43","num_nodes":"31","size_leaf_vector":"1"}},{"base_weights":[-8.92442E-4,-9.1787213E-1,4.5823184E-1,-1.1145396E0,-4.497539E-1,-8.477863E-2,6.575943E-1,-1.3237625E0,-8.8658345E-1,-3.0643818E-1,-1.164993E0,-1.9953649E-1,4.306063E-1,9.7107625E-1,4.160757E-1,-1.6026124E-2,-0E0,-1.2933902E-2,-5.9080618E-3,-1.02547305E-2,-2.2969136E-3,4.4137804E-4,-1.6196346E-2,4.4262437E-3,-4.2659664E-3,1.2235947E-2,-2.7110346E-3,8.077676E-3,1.3456125E-2,6.9961823E-3,-1.7960255E-3],"categories":[],"categories_nodes":[],"categories_segments":[],"categories_sizes":[],"default_left":[0,0,0,0,0,0,0,0,0,0,0,0,0,0,0,0,0,0,0,0,0,0,0,0,0,0,0,0,0,0,0],"id":39,"left_children":[1,3,5,7,9,11,13,15,17,19,21,23,25,27,29,-1,-1,-1,-1,-1,-1,-1,-1,-1,-1,-1,-1,-1,-1,-1,-1],"loss_changes":[5.6476324E2,4.0544983E1,9.6867874E1,1.359079E1,1.3252203E1,1.4301638E1,4.896695E1,3.7641602E0,1.110865E1,6.8675137E0,5.208805E0,1.7883753E1,1.7482796E1,1.2033142E1,3.5772232E1,0E0,0E0,0E0,0E0,0E0,0E0,0E0,0E0,0E0,0E0,0E0,0E0,0E0,0E0,0E0,0E0],"parents":[2147483647,0,0,1,1,2,2,3,3,4,4,5,5,6,6,7,7,8,8,9,9,10,10,11,11,12,12,13,13,14,14],"right_children":[2,4,6,8,10,12,14,16,18,20,22,24,26,28,30,-1,-1,-1,-1,-1,-1,-1,-1,-1,-1,-1,-1,-1,-1,-1,-1],"split_conditions":[1E0,9.36E1,1E0,1E0,7.2E1,9.13E1,8E0,1E0,1E0,1E0,-1.8375E2,2E0,2.8792E3,6.76E1,1E0,-1.6026124E-2,-0E0,-1.2933902E-2,-5.9080618E-3,-1.02547305E-2,-2.2969136E-3,4.4137804E-4,-1.6196346E-2,4.4262437E-3,-4.2659664E-3,1.2235947E-2,-2.7110346E-3,8.077676E-3,1.3456125E-2,6.9961823E-3,-1.7960255E-3],"split_indices":[33,7,15,34,4,7,4,41,15,40,42,4,8,7,12,0,0,0,0,0,0,0,0,0,0,0,0,0,0,0,0],"split_type":[0,0,0,0,0,0,0,0,0,0,0,0,0,0,0,0,0,0,0,0,0,0,0,0,0,0,0,0,0,0,0],"sum_hessian":[1.3393442E3,4.4660138E2,8.927428E2,3.1335297E2,1.3324843E2,2.3975923E2,6.529836E2,1.6064737E2,1.527056E2,1.1231596E2,2.0932453E1,1.967608E2,4.2998425E1,2.8265717E2,3.7032642E2,1.5854619E2,2.10119E0,1.0048279E2,5.22228E1,1.7986803E1,9.432916E1,2.900296E0,1.8032158E1,4.2163044E1,1.5459776E2,2.2389402E1,2.0609022E1,9.947314E1,1.8318404E2,2.851593E2,8.5167114E1],"tree_param":{"num_deleted":"0","num_feature":"43","num_nodes":"31","size_leaf_vector":"1"}},{"base_weights":[-9.080151E-4,-9.100026E-1,4.5346043E-1,-1.1059564E0,-4.450514E-1,-9.483293E-2,6.490056E-1,-1.3151671E0,-8.7861305E-1,-3.030223E-1,-1.1564263E0,-3.011222E-1,3.205136E-1,9.0827614E-1,3.7675053E-1,-1.592321E-2,-0E0,-1.2657935E-2,-5.430301E-3,-1.0153291E-2,-2.270203E-3,4.374444E-4,-1.6088214E-2,-7.02871E-4,-1.2769241E-2,9.691233E-3,-4.735973E-5,8.738158E-3,1.4001848E-2,6.3363947E-3,-1.5146537E-3],"categories":[],"categories_nodes":[],"categories_segments":[],"categories_sizes":[],"default_left":[0,0,0,0,0,0,0,0,0,0,0,0,0,0,0,0,0,0,0,0,0,0,0,0,0,0,0,0,0,0,0],"id":40,"left_children":[1,3,5,7,9,11,13,15,17,19,21,23,25,27,29,-1,-1,-1,-1,-1,-1,-1,-1,-1,-1,-1,-1,-1,-1,-1,-1],"loss_changes":[5.529813E2,3.9997223E1,9.5804214E1,1.3507416E1,1.3049231E1,2.0259472E1,4.597928E1,3.7159424E0,1.1113594E1,6.7305307E0,5.1372833E0,2.919257E1,1.2569207E1,1.4626801E1,2.5077137E1,0E0,0E0,0E0,0E0,0E0,0E0,0E0,0E0,0E0,0E0,0E0,0E0,0E0,0E0,0E0,0E0],"parents":[2147483647,0,0,1,1,2,2,3,3,4,4,5,5,6,6,7,7,8,8,9,9,10,10,11,11,12,12,13,13,14,14],"right_children":[2,4,6,8,10,12,14,16,18,20,22,24,26,28,30,-1,-1,-1,-1,-1,-1,-1,-1,-1,-1,-1,-1,-1,-1,-1,-1],"split_conditions":[1E0,9.36E1,1E0,1E0,7.2E1,7.95E1,1.1E1,1E0,1E0,1E0,-1.8375E2,1.8E1,1.6694E3,7.615E1,1E0,-1.592321E-2,-0E0,-1.2657935E-2,-5.430301E-3,-1.0153291E-2,-2.270203E-3,4.374444E-4,-1.6088214E-2,-7.02871E-4,-1.2769241E-2,9.691233E-3,-4.735973E-5,8.738158E-3,1.4001848E-2,6.3363947E-3,-1.5146537E-3],"split_indices":[33,7,24,34,4,7,4,41,32,40,42,4,8,7,12,0,0,0,0,0,0,0,0,0,0,0,0,0,0,0,0],"split_type":[0,0,0,0,0,0,0,0,0,0,0,0,0,0,0,0,0,0,0,0,0,0,0,0,0,0,0,0,0,0,0],"sum_hessian":[1.3366177E3,4.451639E2,8.9145374E2,3.1204965E2,1.3311424E2,2.343478E2,6.5710596E2,1.5977715E2,1.522725E2,1.1227014E2,2.0844105E1,1.5692955E2,7.741824E1,3.3518826E2,3.219177E2,1.5767596E2,2.10119E0,1.05546844E2,4.6725666E1,1.7959595E1,9.431055E1,2.9004006E0,1.7943703E1,1.20198265E2,3.673129E1,3.0350334E1,4.706791E1,2.0304306E2,1.3214519E2,2.468007E2,7.511698E1],"tree_param":{"num_deleted":"0","num_feature":"43","num_nodes":"31","size_leaf_vector":"1"}},{"base_weights":[-9.3469967E-4,-9.0224177E-1,4.486947E-1,-1.0975077E0,-4.4040492E-1,-9.3768924E-2,6.423918E-1,-1.2162812E0,-7.053362E-1,-7.535531E-2,-7.072132E-1,-2.9771432E-1,3.1707543E-1,8.9986426E-1,3.725338E-1,-1.5090074E-2,-9.493953E-3,1.3991441E-4,-1.0087989E-2,-8.602762E-3,1.3843551E-3,-1.1698585E-2,-4.2932555E-3,-6.9454545E-4,-1.2637503E-2,9.600534E-3,-4.680606E-5,8.649676E-3,1.3890164E-2,6.266795E-3,-1.4969367E-3],"categories":[],"categories_nodes":[],"categories_segments":[],"categories_sizes":[],"default_left":[0,0,0,0,0,0,0,0,0,0,0,0,0,0,0,0,0,0,0,0,0,0,0,0,0,0,0,0,0,0,0],"id":41,"left_children":[1,3,5,7,9,11,13,15,17,19,21,23,25,27,29,-1,-1,-1,-1,-1,-1,-1,-1,-1,-1,-1,-1,-1,-1,-1,-1],"loss_changes":[5.4143756E2,3.946231E1,9.3760544E1,1.346405E1,1.2915167E1,1.9802126E1,4.5181793E1,3.4601746E0,7.5735283E0,7.2774596E0,6.8046E0,2.8569122E1,1.23189745E1,1.4458832E1,2.4516212E1,0E0,0E0,0E0,0E0,0E0,0E0,0E0,0E0,0E0,0E0,0E0,0E0,0E0,0E0,0E0,0E0],"parents":[2147483647,0,0,1,1,2,2,3,3,4,4,5,5,6,6,7,7,8,8,9,9,10,10,11,11,12,12,13,13,14,14],"right_children":[2,4,6,8,10,12,14,16,18,20,22,24,26,28,30,-1,-1,-1,-1,-1,-1,-1,-1,-1,-1,-1,-1,-1,-1,-1,-1],"split_conditions":[1E0,9.36E1,1E0,1E0,6E1,7.95E1,1.1E1,1E0,1.20605E3,1E0,1E0,1.8E1,1.6694E3,7.615E1,1E0,-1.5090074E-2,-9.493953E-3,1.3991441E-4,-1.0087989E-2,-8.602762E-3,1.3843551E-3,-1.1698585E-2,-4.2932555E-3,-6.9454545E-4,-1.2637503E-2,9.600534E-3,-4.680606E-5,8.649676E-3,1.3890164E-2,6.266795E-3,-1.4969367E-3],"split_indices":[33,7,24,15,4,7,4,38,8,6,15,4,8,7,12,0,0,0,0,0,0,0,0,0,0,0,0,0,0,0,0],"split_type":[0,0,0,0,0,0,0,0,0,0,0,0,0,0,0,0,0,0,0,0,0,0,0,0,0,0,0,0,0,0,0],"sum_hessian":[1.3339299E3,4.4371054E2,8.9021936E2,3.1073215E2,1.329784E2,2.342282E2,6.559912E2,2.3668481E2,7.404733E1,5.6856396E1,7.6122E1,1.568792E2,7.734901E1,3.3430884E2,3.2168234E2,2.1109209E2,2.5592735E1,1.2048385E1,6.1998943E1,1.2497844E1,4.4358555E1,4.1544495E1,3.457751E1,1.2019774E2,3.6681454E1,3.028086E1,4.7068142E1,2.0268163E2,1.3162723E2,2.4657257E2,7.510977E1],"tree_param":{"num_deleted":"0","num_feature":"43","num_nodes":"31","size_leaf_vector":"1"}},{"base_weights":[-9.568135E-4,-8.944904E-1,4.4398662E-1,-1.0890961E0,-4.3572593E-1,-8.655163E-2,6.395332E-1,-1.299247E0,-8.6174893E-1,-7.832373E-1,-1.5639842E-1,-1.9798249E-1,4.1507924E-1,9.47777E-1,4.033182E-1,-1.5734626E-2,-0E0,-1.245348E-2,-5.258926E-3,-7.020862E-3,-1.6690614E-2,1.1822589E-4,-8.249483E-3,4.353237E-3,-4.22244E-3,1.1991015E-2,-2.7804908E-3,7.838569E-3,1.316901E-2,6.7868717E-3,-1.7377799E-3],"categories":[],"categories_nodes":[],"categories_segments":[],"categories_sizes":[],"default_left":[0,0,0,0,0,0,0,0,0,0,0,0,0,0,0,0,0,0,0,0,0,0,0,0,0,0,0,0,0,0,0],"id":42,"left_children":[1,3,5,7,9,11,13,15,17,19,21,23,25,27,29,-1,-1,-1,-1,-1,-1,-1,-1,-1,-1,-1,-1,-1,-1,-1,-1],"loss_changes":[5.301114E2,3.8943573E1,9.244255E1,1.3488586E1,1.277388E1,1.3498703E1,4.6845886E1,3.7019653E0,1.0981155E1,6.085602E0,6.7927585E0,1.7392706E1,1.7030859E1,1.176532E1,3.358757E1,0E0,0E0,0E0,0E0,0E0,0E0,0E0,0E0,0E0,0E0,0E0,0E0,0E0,0E0,0E0,0E0],"parents":[2147483647,0,0,1,1,2,2,3,3,4,4,5,5,6,6,7,7,8,8,9,9,10,10,11,11,12,12,13,13,14,14],"right_children":[2,4,6,8,10,12,14,16,18,20,22,24,26,28,30,-1,-1,-1,-1,-1,-1,-1,-1,-1,-1,-1,-1,-1,-1,-1,-1],"split_conditions":[1E0,9.36E1,1E0,1E0,1E0,9.13E1,8E0,1E0,1E0,7.86225E3,1E0,2E0,2.8792E3,6.76E1,1E0,-1.5734626E-2,-0E0,-1.245348E-2,-5.258926E-3,-7.020862E-3,-1.6690614E-2,1.1822589E-4,-8.249483E-3,4.353237E-3,-4.22244E-3,1.1991015E-2,-2.7804908E-3,7.838569E-3,1.316901E-2,6.7868717E-3,-1.7377799E-3],"split_indices":[33,7,15,34,34,7,4,41,32,8,3,4,8,7,12,0,0,0,0,0,0,0,0,0,0,0,0,0,0,0,0],"split_type":[0,0,0,0,0,0,0,0,0,0,0,0,0,0,0,0,0,0,0,0,0,0,0,0,0,0,0,0,0,0,0],"sum_hessian":[1.3312563E3,4.4228436E2,8.88972E2,3.0942767E2,1.3285672E2,2.3942264E2,6.495493E2,1.5810883E2,1.5131883E2,5.823405E1,7.462266E1,1.9656862E2,4.2854023E1,2.8031226E2,3.6923706E2,1.5601149E2,2.0973353E0,1.0475101E2,4.656783E1,4.5768314E1,1.2465737E1,5.750423E1,1.7118431E1,4.2127342E1,1.5444128E2,2.2250572E1,2.0603453E1,9.9048386E1,1.8126387E2,2.841191E2,8.5117966E1],"tree_param":{"num_deleted":"0","num_feature":"43","num_nodes":"31","size_leaf_vector":"1"}},{"base_weights":[-9.7404246E-4,-8.869445E-1,4.3938172E-1,-1.0808777E0,-4.312386E-1,-9.472563E-2,6.305195E-1,-1.2910815E0,-8.540934E-1,-2.9184163E-1,-1.1355125E0,-2.9412758E-1,3.0762365E-1,8.8475114E-1,3.6504155E-1,-1.563695E-2,-0E0,-1.2538368E-2,-5.5715744E-3,-9.959789E-3,-2.1521654E-3,5.724003E-4,-1.5849419E-2,-6.91825E-4,-1.2479632E-2,-7.6206326E-3,5.5873506E-3,8.485273E-3,1.3696289E-2,6.18445E-4,7.2407187E-3],"categories":[],"categories_nodes":[],"categories_segments":[],"categories_sizes":[],"default_left":[0,0,0,0,0,0,0,0,0,0,0,0,0,0,0,0,0,0,0,0,0,0,0,0,0,0,0,0,0,0,0],"id":43,"left_children":[1,3,5,7,9,11,13,15,17,19,21,23,25,27,29,-1,-1,-1,-1,-1,-1,-1,-1,-1,-1,-1,-1,-1,-1,-1,-1],"loss_changes":[5.191132E2,3.8422882E1,9.083595E1,1.3410522E1,1.2648233E1,1.8937405E1,4.373703E1,3.6565857E0,1.0855225E1,6.589424E0,5.082741E0,2.7789192E1,1.2104506E1,1.4224487E1,2.4221046E1,0E0,0E0,0E0,0E0,0E0,0E0,0E0,0E0,0E0,0E0,0E0,0E0,0E0,0E0,0E0,0E0],"parents":[2147483647,0,0,1,1,2,2,3,3,4,4,5,5,6,6,7,7,8,8,9,9,10,10,11,11,12,12,13,13,14,14],"right_children":[2,4,6,8,10,12,14,16,18,20,22,24,26,28,30,-1,-1,-1,-1,-1,-1,-1,-1,-1,-1,-1,-1,-1,-1,-1,-1],"split_conditions":[1E0,9.36E1,1E0,1E0,7.2E1,7.95E1,1.1E1,1E0,1E0,1E0,-1.8375E2,1.8E1,-5.165E1,7.615E1,1E0,-1.563695E-2,-0E0,-1.2538368E-2,-5.5715744E-3,-9.959789E-3,-2.1521654E-3,5.724003E-4,-1.5849419E-2,-6.91825E-4,-1.2479632E-2,-7.6206326E-3,5.5873506E-3,8.485273E-3,1.3696289E-2,6.18445E-4,7.2407187E-3],"split_indices":[33,7,24,34,4,7,4,41,15,40,42,4,42,7,38,0,0,0,0,0,0,0,0,0,0,0,0,0,0,0,0],"split_type":[0,0,0,0,0,0,0,0,0,0,0,0,0,0,0,0,0,0,0,0,0,0,0,0,0,0,0,0,0,0,0],"sum_hessian":[1.3284573E3,4.4080444E2,8.8765283E2,3.0809225E2,1.3271219E2,2.3393079E2,6.5372205E2,1.5721918E2,1.5087306E2,1.1208768E2,2.0624512E1,1.5676472E2,7.716607E1,3.325439E2,3.2117813E2,1.5512184E2,2.0973353E0,9.9031395E1,5.1841667E1,1.7901121E1,9.4186554E1,2.8947647E0,1.7729748E1,1.2015204E2,3.661269E1,1.0643424E1,6.6522644E1,2.0188232E2,1.3066158E2,1.4034726E2,1.8083086E2],"tree_param":{"num_deleted":"0","num_feature":"43","num_nodes":"31","size_leaf_vector":"1"}},{"base_weights":[-1.0042699E-3,-8.7946224E-1,4.347396E-1,-1.0727584E0,-4.2675045E-1,-8.6977065E-2,6.275532E-1,-1.2830565E0,-8.4650785E-1,-6.835002E-2,-6.89737E-1,-2.7240717E-1,2.0811075E-1,8.304249E-1,2.7826533E-1,-1.5540983E-2,-0E0,-1.2267469E-2,-5.1082955E-3,-8.435563E-3,1.4387434E-3,-1.1455549E-2,-4.145768E-3,4.416847E-3,-5.573859E-3,4.666096E-3,-4.577311E-3,1.18832635E-2,6.059675E-3,7.9344405E-4,8.989175E-3],"categories":[],"categories_nodes":[],"categories_segments":[],"categories_sizes":[],"default_left":[0,0,0,0,0,0,0,0,0,0,0,0,0,0,0,0,0,0,0,0,0,0,0,0,0,0,0,0,0,0,0],"id":44,"left_children":[1,3,5,7,9,11,13,15,17,19,21,23,25,27,29,-1,-1,-1,-1,-1,-1,-1,-1,-1,-1,-1,-1,-1,-1,-1,-1],"loss_changes":[5.0829907E2,3.791916E1,8.938368E1,1.3336884E1,1.2464443E1,1.320729E1,4.558972E1,3.6122131E0,1.0843391E1,7.103452E0,6.6109123E0,1.8645947E1,1.0184782E1,2.1060669E1,2.3956654E1,0E0,0E0,0E0,0E0,0E0,0E0,0E0,0E0,0E0,0E0,0E0,0E0,0E0,0E0,0E0,0E0],"parents":[2147483647,0,0,1,1,2,2,3,3,4,4,5,5,6,6,7,7,8,8,9,9,10,10,11,11,12,12,13,13,14,14],"right_children":[2,4,6,8,10,12,14,16,18,20,22,24,26,28,30,-1,-1,-1,-1,-1,-1,-1,-1,-1,-1,-1,-1,-1,-1,-1,-1],"split_conditions":[1E0,9.36E1,1E0,1E0,6E1,1E0,1.7E1,1E0,1E0,1E0,1E0,2.49E1,3E1,1E0,9.565E1,-1.5540983E-2,-0E0,-1.2267469E-2,-5.1082955E-3,-8.435563E-3,1.4387434E-3,-1.1455549E-2,-4.145768E-3,4.416847E-3,-5.573859E-3,4.666096E-3,-4.577311E-3,1.18832635E-2,6.059675E-3,7.9344405E-4,8.989175E-3],"split_indices":[33,7,15,34,4,18,4,41,32,6,15,8,4,12,7,0,0,0,0,0,0,0,0,0,0,0,0,0,0,0,0],"split_type":[0,0,0,0,0,0,0,0,0,0,0,0,0,0,0,0,0,0,0,0,0,0,0,0,0,0,0,0,0,0,0],"sum_hessian":[1.3257863E3,4.393258E2,8.864605E2,3.067527E2,1.3257312E2,2.3921202E2,6.472485E2,1.5632373E2,1.5042896E2,5.6807667E1,7.576546E1,1.4716307E2,9.204894E1,